tree
version=v2
num_class=1
num_tree_per_iteration=1
label_index=0
max_feature_idx=22
objective=binary sigmoid:1
feature_names=bin_0 bin_1 bin_2 bin_3 bin_4 nom_0 nom_1 nom_2 nom_3 nom_4 nom_5 nom_6 nom_7 nom_8 nom_9 ord_0 ord_1 ord_2 ord_3 ord_4 ord_5 day month
feature_infos=[-1:1] [-1:1] [-1:1] [-1:1] [-1:1] [-1:2] [-1:5] [-1:5] [-1:5] [-1:0.20801394393165437] [-1:0.55543202886923415] [-1:0.42797462344168757] [-1:0.34394904458598724] [-1:0.29310344827586204] [-1:0.72330891618347048] [-1:3] [-1:4] [-1:5] [-1:14] [-1:25] [-1:0.30501930501930502] [-1:7] [-1:12]
tree_sizes=983 986 996 987 769 983 999 989 992 1007 1004 1019 986 1018 1005 1012 1006 993 1007 1011 1014 1013 1005 778 1016 1006 1007 1009 1034 1010 700 1012 1027 1010 1027 1014 1011 1002 1012 1010 1016 1014 1028 1034 1036 1017 1020 1013 1026 1010 1020 1004 1029 1023 1018 1014 1025 1020 1018 1020 1011 1033 1019 1011 1013 1021 1019 1018 1017 1024 1017 797 773 1017 1008 1023 1020 1019 1035 1003 1025 1027 1021 793 1021 1036 1007 1012 1012 1022 708 1017 1015 1024 1020 1018 1016 1019 1020 1023 1023 1024 1012 687 1017 1021 1011 1006 1021 879 1023 1038 1019 1017 1032 1023 1024 1015 1031 1015 1025 1020 1022 1042 1020 1015 1030 1016 881 1023 1020 1009 1039 1033 1026 1030 1024 1022 792 1021 1023 1041 1029 1019 1019 1010 1026 1018 861 1038 1030 1015 1019 1040 1026 1022 1017 1027 1021 1045 1026 1019 1028 1027 1028 1027 1032 1021 867 1021 1015 1026 1023 1022 1023 1023 1029 1034 1037 1015 1031 1031 1052 1036 1024 1025 1022 1026 1026 709 1039 1032 1005 1017 1027 1026 1029 1019 1021 888 1039 1030 883 1019 1019 1024 1020 1021 1031 1043 1036 1041 1023 1026 1044 1020 1041 1034 1037 1031 1022 1025 714 1024 1026 1019 1023 1032 1034 1018 1024 1034 1034 781 1020 716 1022 1041 1020 1031 1035 1020 1026 1022 797 1017 1044 1030 1026 1018 958 1028 1031 1029 1026 1026 1023 1024 1024 1019 1037 1027 1022 1028 1031 1027 1020 1033 1025 1029 1027 1031 1023 1031 1020 1032 1028 1037 885 1021 1036 1044 1032 1025 1032 1025 1035 1037 719 1030 1035 1014 970 1027 1042 1029 1038 1036 1035 1033 1036 1032 1035 1031 1025 1030 1039 1024 1033 1047 1045 630 1032 1020 1027 894 1020 1037 1034 1037 1031 1029 1030 1009 1025 1025 1028 1032 1030 1026 1041 1035 1025 1039 1023 1024 1051 1033 1018 1019 1029 1038 1020 1035 1026 1027 1018 1031 1034 1019 800 1037 1033 1034 1043 1040 1025 1038 1041 1026 1034 1022 1035 1053 1014 1037 1033 1032 1031 1022 1030 1032 1023 1030 1028 1042 1020 1042 1036 1029 1036 1018 1035 1032 1023 1030 894 1005 1029 1042 1039 1027 1038 1015 1037 1019 1037 1005 1033 1031 1023 1053 1025 1031 1025 1020 1028 1033 1034 1012 1029 1020 1042 1034 960 1026 1032 1025 1042 1030 1050 1036 1044 1017 1025 1021 1039 1024 1039 1026 1026 1016 1032 1030 1034 1028 1026 1025 1037 1011 1044 1031 1013 1036 813 1011 1019 1034 1033 1046 1022 1037 1029 1038 1006 1029 1018 1027 1040 724 1040 1025 1027 1033 1036 966 1025 897 1038 1015 1045 1020 1026 1032 1014 1031 1030 1024 880 1022 1042 1047 1030 1040 1019 1044 898 1007 1028 1046 1014 1040 1033 1026 1017

Tree=0
num_leaves=11
num_cat=0
split_feature=21 21 21 5 21 21 5 5 5 5
split_gain=2333.27 4795.85 305.096 187.335 184.379 147.734 79.6478 57.9174 49.5061 43.7465
threshold=5.5000000000000009 2.5000000000000004 1.0000000180025095e-35 1.0000000180025095e-35 6.5000000000000009 1.5000000000000002 1.0000000180025095e-35 1.0000000180025095e-35 1.0000000180025095e-35 1.0000000180025095e-35
decision_type=2 2 2 2 2 2 2 2 2 2
left_child=1 2 -1 -3 7 6 -4 -2 -6 -7
right_child=4 3 5 -5 8 9 -8 -9 -10 -11
leaf_value=-1.2721795231344486 -1.2422446415625379 -1.28436280280173 -1.2266977862390864 -1.2972882048539127 -1.2284047528807511 -1.2416116886240356 -1.2409289691258019 -1.2538900939378284 -1.2398871444899842 -1.2542463568771276
leaf_count=15281 31045 78642 26931 132108 27446 20620 45091 51594 46226 35016
internal_value=0 1.96249 2.23685 1.7588 2.2549 2.2679 2.32775 2.18832 2.32739 2.18801
internal_count=510000 353689 142939 210750 156311 127658 72022 82639 73672 55636
shrinkage=1


Tree=1
num_leaves=11
num_cat=0
split_feature=2 11 11 2 2 11 11 11 11 11
split_gain=7941.29 110.255 63.2676 59.8395 24.6187 21.0235 11.5744 14.9632 16.9809 11.7909
threshold=1.0000000180025095e-35 0.1806669232578528 0.18511431565801342 -1.0000000180025095e-35 -1.0000000180025095e-35 0.2278293760766984 1.0000000180025095e-35 0.16543434288213429 0.16416025930951308 0.1659957558478585
decision_type=2 2 2 2 2 2 2 2 2 2
left_child=1 3 -2 -1 -3 -6 -5 8 -8 -9
right_child=2 4 -4 6 5 -7 7 9 -10 -11
leaf_value=0.16210377251811253 0.19486449219106708 0.16075026127202832 0.20312892848218406 0.14958316327509236 0.14906119442496374 0.15724539205134744 0.14010659536254441 0.15857135571818581 0.1252180101042509 0.14329080064912622
leaf_count=6225 65925 9112 71965 10750 196931 15313 55558 2682 4047 71492
internal_value=0 1.47366 1.99225 1.43231 1.50137 1.49666 1.42377 1.41782 1.39138 1.43874
internal_count=510000 372110 137890 150754 221356 212244 144529 133779 59605 74174
shrinkage=0.1


Tree=2
num_leaves=11
num_cat=0
split_feature=16 2 2 16 16 16 16 16 16 16
split_gain=6146.75 3453.37 1358.71 1030.36 323.091 243.221 226.633 142.815 119.746 114.275
threshold=2.5000000000000004 1.0000000180025095e-35 1.0000000180025095e-35 1.5000000000000002 1.0000000180025095e-35 1.0000000180025095e-35 -1.0000000180025095e-35 3.5000000000000004 -1.0000000180025095e-35 3.5000000000000004
decision_type=2 2 2 2 2 2 2 2 2 2
left_child=1 3 7 5 8 6 -1 -2 -3 -4
right_child=2 4 9 -5 -6 -7 -8 -9 -10 -11
leaf_value=0.11974548451018302 0.14476303279630354 0.16367418969772857 0.17851621921748861 0.12495305761156233 0.15612005381274904 0.10902315470286317 0.091607723497043048 0.15817801327632375 0.13212993366471784 0.19715947589610022
leaf_count=11127 47203 4120 17254 86626 57309 68101 99570 59483 37108 22099
internal_value=0 1.20293 1.63403 1.08586 1.47769 1.00206 0.946045 1.52357 1.35533 1.89243
internal_count=510000 363961 146039 265424 98537 178798 110697 106686 41228 39353
shrinkage=0.1


Tree=3
num_leaves=11
num_cat=0
split_feature=12 14 14 12 12 12 12 14 12 12
split_gain=12311.7 4953.63 3017.47 1426.1 1093.61 923.153 717.847 524.448 342.087 649.085
threshold=0.17954059793645852 0.17836116371148222 0.17731261001869467 0.2114631510698077 0.20964220312720103 0.1420396826037037 1.0000000180025095e-35 0.22817846677379719 1.0000000180025095e-35 0.14018102726753814
decision_type=2 2 2 2 2 2 2 2 2 2
left_child=2 4 8 7 -2 6 -4 -3 -1 -10
right_child=1 3 5 -5 -6 -7 -8 -9 9 -11
leaf_value=0.090557049617021254 0.091787652745907056 0.12645768720984707 0.1254969054163326 0.16820422185345471 0.1232950440041951 0.11152576147354692 0.069829667107837515 0.15450743322018901 0.02909410057268158 0.06213129740841708
leaf_count=6960 67565 53675 8326 78873 70505 59005 47047 29563 37191 51290
internal_value=0 1.33708 0.774472 1.52824 1.08493 0.965199 0.792235 1.36915 0.521478 0.488193
internal_count=510000 300181 209819 162111 138070 114378 55373 83238 95441 88481
shrinkage=0.1


Tree=4
num_leaves=8
num_cat=0
split_feature=0 2 2 2 0 0 2
split_gain=6610.17 2965.33 207.434 54.5961 12.4126 2.44756 1.09112
threshold=1.0000000180025095e-35 1.0000000180025095e-35 1.0000000180025095e-35 -1.0000000180025095e-35 -1.0000000180025095e-35 -1.0000000180025095e-35 -1.0000000180025095e-35
decision_type=2 2 2 2 2 2 2
left_child=1 3 6 -1 -3 -5 -2
right_child=2 4 -4 5 -6 -7 -8
leaf_value=0.10352918243922136 0.013608332141412847 0.11234694517133358 0.047312994096928629 0.088566391216673687 0.12282366979435809 0.092484545212588865 0.020059038095700532
leaf_count=13959 1378 4121 12445 10603 121324 314391 31779
internal_value=0 1.01775 0.280061 0.928399 1.22494 0.923597 0.198047
internal_count=510000 464398 45602 338953 125445 324994 33157
shrinkage=0.1


Tree=5
num_leaves=11
num_cat=0
split_feature=17 19 19 17 17 17 17 19 17 19
split_gain=19115.2 5208.95 3191.18 1226.54 1009.79 1004.05 731.378 645.592 473.567 360.112
threshold=2.5000000000000004 14.500000000000002 10.500000000000002 3.5000000000000004 4.5000000000000009 1.5000000000000002 1.5000000000000002 5.5000000000000009 4.5000000000000009 9.5000000000000018
decision_type=2 2 2 2 2 2 2 2 2 2
left_child=1 5 4 -4 -2 7 -3 -1 -5 -7
right_child=2 6 3 8 -6 9 -8 -9 -10 -11
leaf_value=0.013182904457486353 0.082770223551338409 0.071797897200236466 0.11307270360364569 0.13838718193114072 0.12374551361703592 0.044365948266381773 0.097775116844679821 0.039068740768769032 0.16281348610216986 0.072387358839267335
leaf_count=61333 53196 93203 33759 42388 22429 39571 44908 65324 32728 21161
internal_value=0 0.563733 1.22763 1.39101 0.959606 0.36316 0.806588 0.269333 1.49535 0.545987
internal_count=510000 325500 184500 108875 75625 187389 138111 126657 75116 60732
shrinkage=0.1


Tree=6
num_leaves=11
num_cat=0
split_feature=16 9 16 9 16 16 16 16 9 9
split_gain=3707.82 1505.26 579.837 505.532 267.895 144.993 122.121 120.355 96.1401 137.732
threshold=2.5000000000000004 0.19430479638856893 1.5000000000000002 0.19430479638856893 1.5000000000000002 1.0000000180025095e-35 -1.0000000180025095e-35 3.5000000000000004 0.16066118615497774 1.0000000180025095e-35
decision_type=2 2 2 2 2 2 2 2 2 2
left_child=1 2 5 7 -3 6 -1 -2 9 -4
right_child=3 4 8 -5 -6 -7 -8 -9 -10 -11
leaf_value=0.062812351744764738 0.080452842836189753 0.072643342292701849 0.074447471888630434 0.10683756934323806 0.089249826661056131 0.055834093670867717 0.043218729830833226 0.091963278857900121 0.069011388341177746 0.031056787002232633
leaf_count=10175 43141 80549 3574 47989 38955 62832 91837 54909 70798 5241
internal_value=0 0.632238 0.553793 0.938115 0.782883 0.494146 0.453044 0.870288 0.670003 0.499214
internal_count=510000 363961 244457 146039 119504 164844 102012 98050 79613 8815
shrinkage=0.1


Tree=7
num_leaves=11
num_cat=0
split_feature=9 9 9 3 9 3 9 9 9 3
split_gain=1510.43 280.905 416.976 16.4461 12.7172 9.744 8.04222 7.68157 5.99919 7.7124
threshold=0.19430479638856893 0.16066118615497774 1.0000000180025095e-35 1.0000000180025095e-35 0.14084480336093738 1.0000000180025095e-35 0.17922786918058306 0.14217082568307229 0.20739353541388852 -1.0000000180025095e-35
decision_type=2 2 2 2 2 2 2 2 2 2
left_child=1 2 5 7 -5 -1 -3 -4 9 -2
right_child=8 6 3 4 -6 -7 -8 -9 -10 -11
leaf_value=0.06079738834888207 0.086141501634902029 0.064552200539026799 0.033881139405388054 0.027342297014547975 0.013032104990231733 0.07016399052585745 0.058959502738759398 0.023468385389416705 0.074924614964473085 0.076917828024014978
leaf_count=9909 2981 8500 11411 5062 3251 5404 296027 2943 67149 97363
internal_value=0 0.574749 0.436579 0.282573 0.219139 0.641939 0.591197 0.318138 0.76297 0.772043
internal_count=510000 342507 37980 22667 8313 15313 304527 14354 167493 100344
shrinkage=0.1


Tree=8
num_leaves=11
num_cat=0
split_feature=2 21 21 21 21 21 21 21 21 21
split_gain=2371.85 716.897 1626.81 302.394 504.375 98.2138 66.917 34.1671 35.583 30.1079
threshold=1.0000000180025095e-35 5.5000000000000009 2.5000000000000004 5.5000000000000009 2.5000000000000004 1.0000000180025095e-35 6.5000000000000009 1.0000000180025095e-35 1.5000000000000002 1.5000000000000002
decision_type=2 2 2 2 2 2 2 2 2 2
left_child=1 2 5 4 7 -1 -3 -2 -9 -7
right_child=3 6 -4 -5 -6 9 -8 8 -10 -11
leaf_value=0.04453580697336252 0.067627769668746743 0.0560416315879122 0.032669851390141863 0.084013943128000521 0.05858778954408228 0.063865882238892738 0.064016011138128978 0.087386621830797429 0.077272453120455831 0.057815085885809116
leaf_count=11134 4147 60381 153845 42216 56905 52531 53714 19491 15131 40505
internal_value=0 0.492259 0.44218 0.73456 0.684607 0.595945 0.59863 0.815404 0.830856 0.612759
internal_count=510000 372110 258015 137890 95674 104170 114095 38769 34622 93036
shrinkage=0.1


Tree=9
num_leaves=11
num_cat=0
split_feature=10 2 2 10 10 10 10 10 10 10
split_gain=2540.1 1175.17 734.99 182.253 139.274 76.926 70.2231 47.5071 40.8433 40.2374
threshold=0.18690056687605336 1.0000000180025095e-35 1.0000000180025095e-35 0.16886799505858147 0.20331193760029251 0.22418745429430406 0.15982255777411566 1.0000000180025095e-35 1.0000000180025095e-35 0.22116515837104075
decision_type=2 2 2 2 2 2 2 2 2 2
left_child=1 3 4 8 -2 -4 7 -3 -1 -6
right_child=2 6 5 -5 9 -7 -8 -9 -10 -11
leaf_value=0.036777939598967233 0.049974925231182077 0.065184061534841034 0.071816225686199123 0.037691560479248279 0.056531449757981758 0.083939331887787641 0.059610232321646917 0.047046242926856566 0.026052908810030473 0.062808826895813727
leaf_count=11118 68973 4047 51119 76557 62695 15643 40671 26410 103637 49130
internal_value=0 0.386592 0.614812 0.31429 0.558187 0.747551 0.554026 0.495935 0.271232 0.593217
internal_count=510000 262440 247560 191312 180798 66762 71128 30457 114755 111825
shrinkage=0.1


Tree=10
num_leaves=11
num_cat=0
split_feature=18 18 18 18 18 18 18 18 18 1
split_gain=39641.4 4327.38 2937.88 2260.94 1086.1 362.062 306.326 261.752 201.098 109.687
threshold=7.5000000000000009 4.5000000000000009 11.500000000000002 -1.0000000180025095e-35 1.5000000000000002 12.500000000000002 5.5000000000000009 8.5000000000000018 2.5000000000000004 1.0000000180025095e-35
decision_type=2 2 2 2 2 2 2 2 2 2
left_child=1 3 7 -1 -5 -4 -3 -2 -6 -7
right_child=2 6 5 4 8 9 -8 -9 -10 -11
leaf_value=0.046559804946862321 0.051290583685345392 0.017686778837066239 0.090640908081375454 -0.032337090157303586 -0.014869530649965854 0.1084644049386919 0.039937212458899078 0.071006236843283096 0.00018342202463195284 0.095505861672048262
leaf_count=15152 29513 25081 49217 93525 48167 81306 52576 38531 59152 17780
internal_value=0 0.00534665 0.901982 -0.127205 -0.180706 1.0125 0.330671 0.627574 -0.0642477 1.06228
internal_count=510000 293653 216347 215996 200844 148303 77657 68044 107319 99086
shrinkage=0.1


Tree=11
num_leaves=11
num_cat=0
split_feature=17 17 17 17 17 17 5 5 5 5
split_gain=13323.7 1563.54 1234.81 659.909 598.419 484.702 41.6015 38.8159 34.8615 33.0104
threshold=2.5000000000000004 3.5000000000000004 1.5000000000000002 -1.0000000180025095e-35 4.5000000000000009 1.0000000180025095e-35 1.0000000180025095e-35 1.0000000180025095e-35 1.0000000180025095e-35 1.0000000180025095e-35
decision_type=2 2 2 2 2 2 2 2 2 2
left_child=2 -2 3 -1 -3 7 -7 -5 -6 -4
right_child=1 4 9 5 8 6 -8 -9 -10 -11
leaf_value=0.042840930299865354 0.048964444998431861 0.070369482658030558 0.036206794851581424 0.0051537851114084269 0.095558062745182665 0.022714755562223819 0.014993260958387168 -0.0011305079414642772 0.087815929104654009 0.030225329912554819
leaf_count=15433 57281 72062 39330 45416 20708 31120 51862 76029 34449 66310
internal_value=0 0.709016 0.182522 0.108785 0.796814 0.0821326 0.179441 0.0125031 0.907968 0.324883
internal_count=510000 184500 325500 219860 127219 204427 82982 121445 55157 105640
shrinkage=0.1


Tree=12
num_leaves=11
num_cat=0
split_feature=15 15 8 8 8 8 8 8 8 8
split_gain=11714 2812.88 829.525 730.491 645.353 474.633 406.21 331.552 239.022 207.107
threshold=2.5000000000000004 1.5000000000000002 4.5000000000000009 4.5000000000000009 4.5000000000000009 3.5000000000000004 3.5000000000000004 1.5000000000000002 2.5000000000000004 1.5000000000000002
decision_type=2 2 2 2 2 2 2 2 2 2
left_child=1 2 5 6 8 7 9 -1 -3 -2
right_child=3 4 -4 -5 -6 -7 -8 -9 -10 -11
leaf_value=-0.01406792248649626 0.052140927993321533 0.037723837342174049 0.025076937014055518 0.086602449110694049 0.056531064919348839 -0.013350071366337811 0.050227295012670793 0.0099125674884174234 0.022341314849515775 0.071522431401093697
leaf_count=20538 16320 46660 41844 33670 26349 57444 46297 89462 59538 71878
internal_value=0 0.171881 0.048147 0.674254 0.35077 -0.00632376 0.622016 0.0566917 0.29279 0.68126
internal_count=510000 341835 209288 168165 132547 167444 134495 110000 106198 88198
shrinkage=0.1


Tree=13
num_leaves=11
num_cat=0
split_feature=13 13 13 13 2 2 2 13 2 13
split_gain=10494.8 1918.18 1534.67 1161.06 570.618 390.311 252.231 232.259 199.872 182.305
threshold=0.19354356237877898 0.14945695742238357 0.23304476685926753 1.0000000180025095e-35 1.0000000180025095e-35 1.0000000180025095e-35 1.0000000180025095e-35 0.17494114719697582 1.0000000180025095e-35 0.21677973220066063
decision_type=2 2 2 2 2 2 2 2 2 2
left_child=1 3 5 -1 7 9 -5 -3 -4 -2
right_child=2 4 8 6 -6 -7 -8 -9 -10 -11
leaf_value=0.035591453188843339 0.035495155540058367 0.0094469683097552683 0.067833938236284239 -0.016962903962908615 0.035828222608678698 0.059354596104193004 0.0010671715735280211 0.023476967273963402 0.08381939992494486 0.050511496837903763
leaf_count=15090 62694 72186 60581 78619 48026 34312 28892 57296 22576 29728
internal_value=0 0.112851 0.572142 -0.0511953 0.217757 0.46144 -0.116816 0.157967 0.726539 0.404826
internal_count=510000 300109 209891 122601 177508 126734 107511 129482 83157 92422
shrinkage=0.1


Tree=14
num_leaves=11
num_cat=0
split_feature=15 15 10 10 10 15 15 10 10 10
split_gain=9278.74 2247.2 821.875 667.527 520.733 370.815 238.097 108.265 62.2515 55.6378
threshold=2.5000000000000004 1.5000000000000002 0.19609432103473481 0.1838895068594735 0.18690056687605336 1.0000000180025095e-35 1.0000000180025095e-35 0.17409419038408402 0.16886799505858147 0.22229992229992232
decision_type=2 2 2 2 2 2 2 2 2 2
left_child=1 2 5 8 -3 -1 -4 -7 -2 -8
right_child=3 4 6 -5 -6 7 9 -9 -10 -11
leaf_value=0.02321577639857578 0.043134503245160861 0.018025597501031738 0.043726135481804221 0.065477523054816911 0.037962030119347442 -0.014242189690549937 0.0081025763977617942 -0.0038671147449723994 0.05201693709207067 0.017642023262014597
leaf_count=9510 51787 68128 5983 86888 64419 72088 49898 47696 29490 24113
internal_value=0 0.12176 0.0113159 0.56633 0.28073 -0.0735989 0.139437 -0.100305 0.464321 0.112822
internal_count=510000 341835 209288 168165 132547 129294 79994 119784 81277 74011
shrinkage=0.1


Tree=15
num_leaves=11
num_cat=0
split_feature=18 18 18 14 14 18 14 14 18 18
split_gain=30715.2 3399.28 2252.13 1865.45 1369.24 1090.57 962.582 775.073 683.34 538.612
threshold=7.5000000000000009 4.5000000000000009 11.500000000000002 0.17426829675280614 0.17956773791922812 -1.0000000180025095e-35 0.17473923557223811 0.17783880857202974 -1.0000000180025095e-35 1.5000000000000002
decision_type=2 2 2 2 2 2 2 2 2 2
left_child=1 3 7 8 -4 -5 -3 -2 -1 -7
right_child=2 6 4 5 -6 9 -8 -9 -10 -11
leaf_value=0.0066014144997499609 0.02220664872935647 -0.0062636384073263872 0.05875722766582904 0.041317032973468115 0.086659356662982787 -0.029069703352331239 0.03031998296371536 0.055446582704829231 -0.048409431518415966 -0.0055560904129606289
leaf_count=6602 31240 33860 69644 8550 78659 53096 43797 36804 87006 60742
internal_value=0 -0.129227 0.649176 -0.245818 0.744153 -0.112709 0.154997 0.412417 -0.438543 -0.160913
internal_count=510000 293653 216347 215996 148303 122388 77657 68044 93608 113838
shrinkage=0.1


Tree=16
num_leaves=11
num_cat=0
split_feature=16 16 16 16 16 11 11 11 11 11
split_gain=2715.72 615.119 153.557 179.016 130.307 47.6273 45.0878 32.3474 25.3939 23.1452
threshold=2.5000000000000004 1.5000000000000002 1.0000000180025095e-35 -1.0000000180025095e-35 3.5000000000000004 0.18711337576368256 0.2225291613226377 0.20676653093914235 0.19456133246474289 0.16543434288213429
decision_type=2 2 2 2 2 2 2 2 2 2
left_child=1 2 3 6 -2 -5 -1 -4 -3 -6
right_child=4 8 7 5 9 -7 -8 -9 -10 -11
leaf_value=0.021031561307718962 0.034970491447761896 0.022661426400128935 0.014087211606802805 0.002202178120233312 0.038895280649693685 0.0083481102439143789 0.054801687224057538 0.021721628277339113 0.027500323487013836 0.045471502361538942
leaf_count=14271 64457 75080 75859 69512 16197 67166 976 17609 43488 65385
internal_value=0 0.152025 0.104579 0.0720562 0.402186 0.0525577 0.234503 0.155607 0.244578 0.441964
internal_count=510000 363961 245393 151925 146039 136678 15247 93468 118568 81582
shrinkage=0.1


Tree=17
num_leaves=11
num_cat=0
split_feature=9 7 7 7 7 7 7 7 7 9
split_gain=1139.08 465.595 807.435 518.24 198.226 308.331 225.634 101.508 60.8679 60.2698
threshold=0.19430479638856893 3.5000000000000004 1.0000000180025095e-35 4.5000000000000009 3.5000000000000004 1.0000000180025095e-35 4.5000000000000009 2.5000000000000004 1.5000000000000002 0.16066118615497774
decision_type=2 2 2 2 2 2 2 2 2 2
left_child=1 2 -1 9 5 -2 -6 8 -4 -3
right_child=4 3 7 -5 6 -7 -8 -9 -10 -11
leaf_value=0.023351224624583587 0.037785685619292284 0.016592029046634284 8.9475135545899028e-05 -0.014140075909078238 0.044542818166328123 0.022145345911803921 0.0038007683869329188 0.0014672878321756312 0.011729927996273912 0.031792770134669933
leaf_count=96977 47502 7593 14980 8119 33394 82660 3937 94076 60162 60600
internal_value=0 0.151984 0.119678 0.25993 0.309609 0.280429 0.407282 0.0506933 0.0947374 0.301876
internal_count=510000 342507 266195 76312 167493 130162 37331 169218 75142 68193
shrinkage=0.1


Tree=18
num_leaves=11
num_cat=0
split_feature=12 12 12 12 12 12 12 12 12 12
split_gain=7521.39 1816.06 480.51 839.187 425.582 235 115.712 67.9721 59.3855 48.3329
threshold=0.17079298933692857 0.21132434865752314 0.1420396826037037 1.0000000180025095e-35 0.24539392132098423 0.12764940108281006 0.19857965370691219 0.23325203633350536 0.10865563298490129 0.18396157170208458
decision_type=2 2 2 2 2 2 2 2 2 2
left_child=2 6 3 -1 7 8 9 -3 -5 -2
right_child=1 4 -4 5 -6 -7 -8 -9 -10 -11
leaf_value=0.017014609502180741 0.014664667396122308 0.035485056528885887 0.00014557685204100057 -0.04180518608817143 0.054741112140427775 -0.014183943692992014 0.027957376558397019 0.044711825476191278 -0.028162176134423858 0.020913505680633996
leaf_count=15286 49998 71516 83144 13671 51609 38974 42989 24829 33579 84405
internal_value=0 0.319556 -0.0893478 -0.168286 0.440145 -0.237435 0.209442 0.379224 -0.320176 0.18627
internal_count=510000 325346 184654 101510 147954 86224 177392 96345 47250 134403
shrinkage=0.1


Tree=19
num_leaves=11
num_cat=0
split_feature=18 18 19 19 19 18 18 18 18 19
split_gain=24756.1 3748.61 2642.86 1841.86 1335.2 713.844 586.051 519.607 807.865 347.902
threshold=6.5000000000000009 10.500000000000002 13.500000000000002 8.5000000000000018 14.500000000000002 -1.0000000180025095e-35 3.5000000000000004 -1.0000000180025095e-35 2.5000000000000004 16.500000000000004
decision_type=2 2 2 2 2 2 2 2 2 2
left_child=2 4 5 -3 -2 -1 -7 -4 -9 -5
right_child=1 3 7 9 -6 6 -8 8 -10 -11
leaf_value=0.0036559783965327435 0.0082609663469079119 0.037748836148679826 0.033149670826410238 0.062677060036849211 0.042276103352481983 -0.053826777046192015 -0.027022285989466373 -0.022168268539459225 0.007172323916681979 0.079672706760985659
leaf_count=8141 65159 55686 7011 48400 47757 89465 33723 66182 41829 46647
internal_value=0 0.458784 -0.248549 0.600015 0.236994 -0.423629 -0.459989 -0.0695416 -0.100618 0.71328
internal_count=510000 263649 246351 150733 112916 131329 123188 115022 108011 95047
shrinkage=0.1


Tree=20
num_leaves=11
num_cat=0
split_feature=18 19 19 18 18 18 18 18 19 18
split_gain=20164.7 2611.47 2213.75 1336.7 866.392 783.152 684.549 633.25 507.133 498.152
threshold=7.5000000000000009 10.500000000000002 11.500000000000002 4.5000000000000009 4.5000000000000009 10.500000000000002 -1.0000000180025095e-35 11.500000000000002 19.500000000000004 -1.0000000180025095e-35
decision_type=2 2 2 2 2 2 2 2 2 2
left_child=1 4 7 6 9 -4 -3 -2 -8 -1
right_child=2 3 5 -5 -6 -7 8 -9 -10 -11
leaf_value=-0.0020446869648401444 0.0075482998736757971 0.027816879161148646 0.040135300207694707 0.018902489261241537 -0.013384725368530543 0.065188699763087027 -0.024906482941473206 0.035947411663849849 -0.0016631368856337499 -0.050122379973590918
leaf_count=6270 28098 8882 38513 45681 31976 88633 78870 61103 39866 82108
internal_value=0 -0.162003 0.467101 -0.0366452 -0.364745 0.582953 -0.129917 0.277907 -0.167248 -0.460389
internal_count=510000 293653 216347 173299 120354 127146 127618 89201 118736 88378
shrinkage=0.1


Tree=21
num_leaves=11
num_cat=0
split_feature=20 12 12 20 20 20 20 12 20 20
split_gain=14597 3240.61 2917.63 1028.33 978.697 624.825 580.507 444.881 416.998 467.09
threshold=0.18599773784890913 0.1776460640097004 0.17079298933692857 0.14452619309779283 0.22815577374682297 0.23274372558298906 1.0000000180025095e-35 0.21910019643322079 0.15073942510478602 1.0000000180025095e-35
decision_type=2 2 2 2 2 2 2 2 2 2
left_child=1 8 5 6 -4 -2 -3 -5 9 -1
right_child=2 3 4 7 -6 -7 -8 -9 -10 -11
leaf_value=-0.0039868040870774538 0.0015232699259575282 0.024043459171007191 0.037759554909248316 0.0031111635846981628 0.061336234290451166 0.028386860850851438 -0.017648960642246189 0.02836558641521358 -0.025602589048087217 -0.052724786577599138
leaf_count=5965 44627 9029 73011 45706 82717 43999 78104 26740 42630 57472
internal_value=0 -0.144211 0.391999 -0.00570797 0.507748 0.154089 -0.12807 0.130261 -0.384332 -0.475694
internal_count=510000 265646 244354 159579 155728 88626 87133 72446 106067 63437
shrinkage=0.1


Tree=22
num_leaves=11
num_cat=0
split_feature=22 22 22 22 22 22 22 1 1 22
split_gain=10950 1455.31 945.26 708.124 665.336 571.904 177.163 107.94 102.089 93.6236
threshold=5.5000000000000009 3.5000000000000004 1.0000000180025095e-35 9.5000000000000018 2.5000000000000004 6.5000000000000009 11.500000000000002 1.0000000180025095e-35 1.0000000180025095e-35 7.5000000000000009
decision_type=2 2 2 2 2 2 2 2 2 2
left_child=1 2 -1 5 8 -2 -5 9 -4 -7
right_child=3 -3 4 6 -6 7 -8 -9 -10 -11
leaf_value=0.011795855697315812 0.03882169582991879 0.0028139938866984411 -0.037629455920332101 0.048145119931395093 -0.016972859471893236 0.028044573299839087 0.03553963961500204 0.0099551720146793584 -0.053912384029566753 0.01838594352848413
leaf_count=15279 51291 70992 64736 45249 59589 37270 58131 23515 14250 69698
internal_value=0 -0.159506 -0.253572 0.313062 -0.299893 0.253812 0.41194 0.197517 -0.404677 0.218238
internal_count=510000 224846 153854 285154 138575 181774 103380 130483 78986 106968
shrinkage=0.1


Tree=23
num_leaves=8
num_cat=0
split_feature=2 2 3 3 3 3 3
split_gain=1277.2 31.5142 8.12218 2.02275 1.88615 1.31051 0.818057
threshold=1.0000000180025095e-35 -1.0000000180025095e-35 1.0000000180025095e-35 1.0000000180025095e-35 -1.0000000180025095e-35 -1.0000000180025095e-35 -1.0000000180025095e-35
decision_type=2 2 2 2 2 2 2
left_child=1 2 6 4 -3 -2 -1
right_child=5 3 -4 -5 -6 -7 -8
leaf_value=0.017077470407498369 0.01999224373247746 0.0073391739798586561 0.017725278461525159 0.0060196765816351947 0.0050915101392592062 0.023275732255323658 0.0096206773958827391
leaf_count=482 4045 10668 5503 128490 217615 133845 9352
internal_value=0 0.0580931 0.128512 0.0549555 0.0519864 0.231823 0.100231
internal_count=510000 372110 15337 356773 228283 137890 9834
shrinkage=0.1


Tree=24
num_leaves=11
num_cat=0
split_feature=1 11 11 11 11 11 11 11 11 11
split_gain=417.187 77.3792 22.0684 11.3581 9.72646 22.2321 15.4798 9.67377 7.83198 11.2211
threshold=1.0000000180025095e-35 0.19159884426211435 0.17277887186384236 0.14937931034482763 0.16990967358087464 0.1695303889151315 0.13463936313063499 0.13979768638842177 0.16543434288213429 0.16653204092622512
decision_type=2 2 2 2 2 2 2 2 2 2
left_child=1 2 3 7 5 6 -2 -1 -5 -10
right_child=4 -3 -4 8 -6 -7 -8 -9 9 -11
leaf_value=0.008870284210740256 0.0061946311274829668 0.014443630215539606 0.011557015526867068 0.0061439037549092411 0.00093020977683302443 -0.045378461319614018 -0.004411083773591359 0.014364199949990953 0.016348182885174627 0.0081588260736782572
leaf_count=21987 4346 173903 125015 47462 68801 360 18214 12996 4800 32116
internal_value=0 0.119181 0.100894 0.0853296 -0.000155988 -0.0290999 -0.0229922 0.109408 0.0752022 0.0925991
internal_count=510000 418279 244376 119361 91721 22920 22560 34983 84378 36916
shrinkage=0.1


Tree=25
num_leaves=11
num_cat=0
split_feature=4 11 4 11 11 11 11 11 11 11
split_gain=453.239 45.1565 31.6114 30.573 15.544 15.4511 26.2393 12.8897 11.319 10.552
threshold=1.0000000180025095e-35 0.17325980318396583 -1.0000000180025095e-35 0.20516525863346677 0.16505786109609977 0.16156597049056698 0.16193418955835484 0.15056290131801289 0.17223551302498674 0.23133429239345446
decision_type=2 2 2 2 2 2 2 2 2 2
left_child=1 2 8 4 5 -2 -7 -4 -1 -3
right_child=3 9 7 -5 -6 6 -8 -9 -10 -11
leaf_value=0.012092627673284414 0.011735735164890133 0.0055511036606595817 0.0037168260405182779 0.017511314825197868 0.013881077244097441 -0.02315462861610143 0.0071058153726899376 -0.00078562253834249724 0.046640300582641181 0.011035004735221156
leaf_count=4299 37293 189360 23226 47833 136878 897 6314 54457 225 9218
internal_value=0 0.0452367 0.0135038 0.139961 0.130512 0.104552 0.0360758 0.00570932 0.140959 0.0581217
internal_count=510000 280785 82207 229215 181382 44504 7211 77683 4524 198578
shrinkage=0.1


Tree=26
num_leaves=11
num_cat=0
split_feature=15 15 16 16 16 15 16 15 16 16
split_gain=7418.9 1785.31 954.737 793.971 525.711 331.838 184.3 146.973 130.454 112.292
threshold=2.5000000000000004 1.5000000000000002 2.5000000000000004 2.5000000000000004 1.5000000000000002 1.0000000180025095e-35 1.5000000000000002 1.0000000180025095e-35 1.5000000000000002 3.5000000000000004
decision_type=2 2 2 2 2 2 2 2 2 2
left_child=1 2 5 8 -3 -1 -7 -4 -2 -6
right_child=3 4 7 -5 9 6 -8 -9 -10 -11
leaf_value=0.0030485643296214401 0.0225543262109381 -0.0032854391182769362 0.026622811306434381 0.048504221758344478 0.012413352336293601 -0.030551283218173304 -0.017477340511296326 -0.0019779698182586943 0.033212079512034011 0.02582524543437106
leaf_count=10948 80910 63639 4545 48014 47771 93431 44833 55531 39241 21137
internal_value=0 -0.0653434 -0.163277 0.330814 0.075787 -0.23813 -0.261563 0.00394886 0.261691 0.167222
internal_count=510000 341835 209288 168165 132547 149212 138264 60076 120151 68908
shrinkage=0.1


Tree=27
num_leaves=11
num_cat=0
split_feature=19 19 19 19 7 7 7 7 7 7
split_gain=3977.7 984.581 436.721 523.358 154.784 190.161 153.413 289.883 212.875 151.551
threshold=10.500000000000002 18.500000000000004 -1.0000000180025095e-35 3.5000000000000004 3.5000000000000004 1.0000000180025095e-35 3.5000000000000004 1.0000000180025095e-35 4.5000000000000009 3.5000000000000004
decision_type=2 2 2 2 2 2 2 2 2 2
left_child=2 6 -1 -4 5 -5 7 -2 -8 -3
right_child=1 9 3 4 -6 -7 8 -9 -10 -11
leaf_value=0.015067782275385192 0.017161280676524216 0.025271166695242039 -0.021884032687716118 0.0021569246535452025 0.0070350173344214274 -0.014585610424713846 0.022505610275799705 0.0021410393448438969 -0.016575147856512359 0.037748374335054721
leaf_count=15171 49397 98164 94655 28190 21951 49000 34877 86351 4133 28111
internal_value=0 0.181141 -0.106844 -0.12877 -0.0472111 -0.0823968 0.103401 0.0779742 0.188365 0.281514
internal_count=510000 301033 208967 193796 99141 77190 174758 135748 39010 126275
shrinkage=0.1


Tree=28
num_leaves=11
num_cat=0
split_feature=15 15 2 2 2 15 15 2 2 2
split_gain=6016.15 1447.49 482.16 295.931 285.817 282.635 115.884 18.2091 9.20855 2.79136
threshold=2.5000000000000004 1.5000000000000002 1.0000000180025095e-35 1.0000000180025095e-35 1.0000000180025095e-35 1.0000000180025095e-35 1.0000000180025095e-35 -1.0000000180025095e-35 -1.0000000180025095e-35 -1.0000000180025095e-35
decision_type=2 2 2 2 2 2 2 2 2 2
left_child=1 2 5 8 9 -1 -4 -7 -2 -3
right_child=3 4 6 -5 -6 7 -8 -9 -10 -11
leaf_value=0.0036928548873835301 0.031476514032690105 0.0055485838334013576 0.021283039562739539 0.038887850295346998 0.017481663097786034 -0.013639217486956255 -0.0052464636226699848 -0.023167056235021438 0.02473244684799164 0.0011664855413307371
leaf_count=11404 5062 3857 4089 45419 35838 5937 52544 135314 117684 92852
internal_value=0 -0.0660666 -0.154351 0.290845 0.0609965 -0.205848 -0.0313152 -0.227526 0.250221 0.0134889
internal_count=510000 341835 209288 168165 132547 152655 56633 141251 122746 96709
shrinkage=0.1


Tree=29
num_leaves=11
num_cat=0
split_feature=18 22 22 18 18 18 18 18 18 22
split_gain=16370.5 4976.77 3839.4 1302.57 718.702 610.644 608.286 487.901 486.492 267.248
threshold=7.5000000000000009 4.5000000000000009 5.5000000000000009 4.5000000000000009 -1.0000000180025095e-35 11.500000000000002 12.500000000000002 5.5000000000000009 1.5000000000000002 3.5000000000000004
decision_type=2 2 2 2 2 2 2 2 2 2
left_child=1 7 6 4 -3 -4 9 -1 -6 -2
right_child=2 3 5 -5 8 -7 -8 -9 -10 -11
leaf_value=-0.062510721445137904 -0.0092434844387382729 0.022353872782177472 0.034683321647127528 0.012793751050802602 -0.031558312796160254 0.056993020683120343 0.023389509096506545 -0.030754135955744822 -0.011063758132923046 0.014713807251784684
leaf_count=78877 35268 10133 38056 52283 62948 83156 43441 17099 72313 16426
internal_value=0 -0.222023 0.345516 -0.0797254 -0.166166 0.505848 0.106923 -0.561809 -0.202157 -0.0117656
internal_count=510000 293653 216347 197677 145394 121212 95135 95976 135261 51694
shrinkage=0.1


Tree=30
num_leaves=7
num_cat=0
split_feature=0 4 4 4 0 0
split_gain=4205.85 331.863 28.6977 11.2071 8.32453 2.73654
threshold=1.0000000180025095e-35 1.0000000180025095e-35 1.0000000180025095e-35 -1.0000000180025095e-35 -1.0000000180025095e-35 -1.0000000180025095e-35
decision_type=2 2 2 2 2 2
left_child=1 3 -2 -1 -3 -5
right_child=2 4 -4 5 -6 -7
leaf_value=0.0098453402932777781 -0.049153060210459731 0.0084316541411784216 -0.040290893892622144 0.0022766871337207327 0.014134240123207921 0.0053448607966533812
leaf_count=13999 25227 6805 20375 7952 202035 233607
internal_value=0 0.09367 -0.451432 0.0550348 0.139532 0.0524622
internal_count=510000 464398 45602 255558 208840 241559
shrinkage=0.1


Tree=31
num_leaves=11
num_cat=0
split_feature=15 14 14 15 15 14 14 14 14 14
split_gain=4901.27 2986.9 1131.87 718.488 457.278 357.013 333.265 277.236 219.283 203.408
threshold=2.5000000000000004 0.20025706940874041 0.17783880857202974 1.5000000000000002 1.5000000000000002 0.1578947370652963 0.15625000000000056 0.22234706616729091 0.22817846677379719 1.0000000180025095e-35
decision_type=2 2 2 2 2 2 2 2 2 2
left_child=1 3 -2 5 8 9 -5 -4 -3 -1
right_child=2 4 7 6 -6 -7 -8 -9 -10 -11
leaf_value=-0.0083161055349643808 0.010997554286577392 -0.0053364561834119192 0.029093771796622082 -0.01894098465610531 0.023058230540978719 -0.018944317181440396 0.0015929972462281458 0.045563117241626594 0.011784026871578677 -0.039901816994651514
leaf_count=6283 76929 37153 54646 40155 48973 66254 43419 36590 40253 59345
internal_value=0 -0.0708627 0.25197 -0.194476 0.117118 -0.274698 -0.0789233 0.359508 0.0380315 -0.366358
internal_count=510000 341835 168165 215456 126379 131882 83574 91236 77406 65628
shrinkage=0.1


Tree=32
num_leaves=11
num_cat=0
split_feature=10 4 10 10 10 4 4 10 10 10
split_gain=1582.02 169.768 136.187 93.6193 90.0387 75.9342 54.0657 48.9474 39.2962 37.8132
threshold=0.18690056687605336 1.0000000180025095e-35 0.20405097132243219 0.17685477947047365 0.16886799505858147 1.0000000180025095e-35 1.0000000180025095e-35 1.0000000180025095e-35 0.2246943523239123 0.16113350443230309
decision_type=2 2 2 2 2 2 2 2 2 2
left_child=1 3 6 7 -3 8 -2 -1 -4 -9
right_child=2 4 5 -5 -6 -7 -8 9 -10 -11
leaf_value=0.0011445136311136054 0.0051151224681850399 -0.0038253670547303653 0.010056767572793201 -0.0006856247846541082 0.0051663795761078659 0.01980214391288727 0.012531010252849674 -0.014470102798172308 0.017117997143439836 -0.0082105318007687934
leaf_count=8324 54563 70917 51088 31479 47187 67189 43922 57208 30798 47325
internal_value=0 -0.0462758 0.130507 -0.0840049 -0.001579 0.159845 0.0848023 -0.106255 0.127595 -0.116048
internal_count=510000 262440 247560 144336 118104 149075 98485 112857 81886 104533
shrinkage=0.1


Tree=33
num_leaves=11
num_cat=0
split_feature=18 18 18 16 16 16 18 18 18 18
split_gain=13473.1 2154.18 951.614 632.635 569.122 489.466 267.231 264.698 253.383 211.094
threshold=8.5000000000000018 3.5000000000000004 -1.0000000180025095e-35 1.5000000000000002 2.5000000000000004 2.5000000000000004 5.5000000000000009 12.500000000000002 12.500000000000002 1.5000000000000002
decision_type=2 2 2 2 2 2 2 2 2 2
left_child=1 2 -1 8 9 6 -3 -5 -2 -4
right_child=3 5 4 7 -6 -7 -8 -9 -10 -11
leaf_value=0.0057792087155247246 0.015266936291862926 -0.021117138397760665 -0.049448841109615463 0.032846667077663795 -0.020511477403662576 0.010130701190251062 -0.0037468776906249748 0.047858436015793274 0.0312491301698689 -0.034420989945526545
leaf_count=15152 42177 41642 67046 45571 47971 40121 58536 51501 47585 52698
internal_value=0 -0.187419 -0.316333 0.333111 -0.358124 -0.0416606 -0.105271 0.411085 0.240594 -0.426168
internal_count=510000 323166 182867 186834 167715 140299 100178 97072 89762 119744
shrinkage=0.1


Tree=34
num_leaves=11
num_cat=0
split_feature=15 15 15 4 4 4 4 4 4 4
split_gain=3998.4 961.387 322.254 87.5163 81.9268 62.9426 11.7834 3.36897 3.32471 3.26332
threshold=2.5000000000000004 1.5000000000000002 1.0000000180025095e-35 1.0000000180025095e-35 1.0000000180025095e-35 1.0000000180025095e-35 1.0000000180025095e-35 -1.0000000180025095e-35 -1.0000000180025095e-35 -1.0000000180025095e-35
decision_type=2 2 2 2 2 2 2 2 2 2
left_child=1 2 6 7 -4 9 8 -3 -1 -2
right_child=5 3 4 -5 -6 -7 -8 -9 -10 -11
leaf_value=0.01648984356891036 0.023243640824285882 0.0038535175680675365 -0.019555005372051248 0.0076000197433619956 -0.012639694967592105 0.025196174283853442 0.012231003823385461 -0.0008577149095501639 0.0025741792032806369 0.019073679625091561
leaf_count=451 5090 4025 106766 59568 87029 75579 7039 68954 8003 87496
internal_value=0 -0.0722743 -0.144566 0.0315892 -0.16401 0.219981 0.0749085 -0.00589098 0.0338725 0.193101
internal_count=510000 341835 209288 132547 193795 168165 15493 72979 8454 92586
shrinkage=0.1


Tree=35
num_leaves=11
num_cat=0
split_feature=14 15 15 14 14 15 15 15 14 14
split_gain=3329.11 1742.36 1634.29 462.156 400.256 326.216 261.127 152.298 121 184.323
threshold=0.17783880857202974 2.5000000000000004 1.5000000000000002 0.22234706616729091 0.22234706616729091 1.5000000000000002 2.5000000000000004 1.0000000180025095e-35 1.0000000180025095e-35 0.14075871988493352
decision_type=2 2 2 2 2 2 2 2 2 2
left_child=1 5 4 6 -2 7 -4 -1 -9 -10
right_child=2 -3 3 -5 -6 -7 -8 8 9 -11
leaf_value=-0.0060694320759942869 -0.0093056633935487132 0.0069072324349314269 0.0074119893715775742 0.033004760146130845 0.010209361930255456 -0.013266943161721077 0.023406424553137795 -0.0077402358610015078 -0.043544165882550057 -0.026528381914094498
leaf_count=7147 67983 76929 43116 65266 45757 60755 54646 5798 31353 51250
internal_value=0 -0.11697 0.142614 0.234944 -0.0111959 -0.225134 0.167283 -0.289663 -0.310347 -0.327979
internal_count=510000 233232 276768 163028 113740 156303 97762 95548 88401 82603
shrinkage=0.1


Tree=36
num_leaves=11
num_cat=0
split_feature=18 18 18 18 18 18 18 18 18 18
split_gain=11002.4 1772.45 669.776 490.073 429.676 160.205 90.6185 90.2621 79.9629 43.9998
threshold=8.5000000000000018 4.5000000000000009 -1.0000000180025095e-35 1.5000000000000002 12.500000000000002 5.5000000000000009 13.500000000000002 2.5000000000000004 1.0000000180025095e-35 11.500000000000002
decision_type=2 2 2 2 2 2 2 2 2 2
left_child=1 2 -1 8 9 -3 -6 -5 -4 -2
right_child=4 5 3 7 6 -7 -8 -9 -10 -11
leaf_value=0.0045453730152062947 0.01786613683300127 -0.012939929616174906 -0.044073355244791716 -0.02798051224687477 0.03234007743851524 0.0019661922588434799 0.041263193902280983 -0.017934822529110467 -0.033428041821325437 0.024669304658119857
leaf_count=15152 38531 25081 55515 48167 60440 82089 38646 59152 38010 49217
internal_value=0 -0.176319 -0.271479 -0.300782 0.29536 -0.0130826 0.358948 -0.223344 -0.396819 0.217813
internal_count=510000 323166 215996 200844 186834 107170 99086 107319 93525 87748
shrinkage=0.1


Tree=37
num_leaves=11
num_cat=0
split_feature=18 18 8 18 8 8 8 8 8 8
split_gain=8944.88 1455.32 688.008 639.911 507.814 490.765 361.012 347.19 338.891 217.789
threshold=8.5000000000000018 3.5000000000000004 4.5000000000000009 -1.0000000180025095e-35 4.5000000000000009 4.5000000000000009 2.5000000000000004 3.5000000000000004 1.5000000000000002 3.5000000000000004
decision_type=2 2 2 2 2 2 2 2 2 2
left_child=1 3 6 -1 7 9 8 -5 -2 -3
right_child=2 5 -4 4 -6 -7 -8 -9 -10 -11
leaf_value=0.0040906966096150047 0.012409279884274906 -0.0038541921387931933 0.043746412417420326 -0.028751502388772374 -0.011385162318117448 0.014460354906957885 0.015450473054364935 -0.047979848617847765 0.036297730896891887 -0.019114638591601785
leaf_count=15152 18244 73855 37267 88159 33623 27960 84157 45933 47166 38484
internal_value=0 -0.159205 0.266754 -0.26601 -0.30066 -0.0394315 0.22037 -0.351005 0.300607 -0.089147
internal_count=510000 323166 186834 182867 167715 140299 149567 134092 65410 112339
shrinkage=0.1


Tree=38
num_leaves=11
num_cat=0
split_feature=6 6 6 16 16 16 6 6 16 16
split_gain=3134.69 1526.68 1249.39 738.276 430.376 347.424 334.714 280.492 151.76 139.281
threshold=4.5000000000000009 3.5000000000000004 1.5000000000000002 1.5000000000000002 2.5000000000000004 2.5000000000000004 1.0000000180025095e-35 1.0000000180025095e-35 1.0000000180025095e-35 2.5000000000000004
decision_type=2 2 2 2 2 2 2 2 2 2
left_child=1 2 3 6 8 -3 -1 -5 -2 -4
right_child=4 5 9 7 -6 -7 -8 -9 -10 -11
leaf_value=-0.012692066701235955 -0.033021275485075184 0.019542390065399529 -0.033595262400561703 0.0068253364121895468 -0.0052444495358841452 0.039047264120208119 0.0052011418902006348 0.021824451838653156 -0.0196986409123306 -0.010711985690590939
leaf_count=50143 41701 72606 24695 54479 39948 28826 62258 67360 58048 9936
internal_value=0 0.0964303 0.0319164 0.071657 -0.190004 0.255526 -0.0254537 0.153067 -0.250907 -0.265123
internal_count=510000 370303 268871 234240 139697 101432 112401 121839 99749 34631
shrinkage=0.1


Tree=39
num_leaves=11
num_cat=0
split_feature=22 22 22 22 22 22 22 22 22 22
split_gain=7447.62 966.385 766.111 588.364 544.471 454.536 154.795 83.9591 124.023 34.1353
threshold=5.5000000000000009 3.5000000000000004 1.0000000180025095e-35 10.500000000000002 2.5000000000000004 6.5000000000000009 11.500000000000002 7.5000000000000009 8.5000000000000018 1.5000000000000002
decision_type=2 2 2 2 2 2 2 2 2 2
left_child=1 2 -1 5 9 -2 -5 -7 -9 -4
right_child=3 -3 4 6 -6 7 -8 8 -10 -11
leaf_value=0.0046523088098816331 0.024708828641224062 -0.0059237687279278667 -0.039676575639069747 0.033914032065225613 -0.021403753348041333 0.013022233371891793 0.021916890522052698 0.0013945109218721301 0.015578935898305444 -0.047026198192235108
leaf_count=15279 51291 70992 44453 43446 59589 45452 58131 67393 19441 34533
internal_value=0 -0.213263 -0.290718 0.179745 -0.332836 0.126047 0.271836 0.0760864 0.0468985 -0.428582
internal_count=510000 224846 153854 285154 138575 183577 101577 132286 86834 78986
shrinkage=0.1


Tree=40
num_leaves=11
num_cat=0
split_feature=17 17 17 17 17 17 11 11 11 11
split_gain=10562.6 1311.49 959.705 508.365 507.867 376.884 27.9293 17.8681 17.5847 14.8869
threshold=2.5000000000000004 4.5000000000000009 1.5000000000000002 -1.0000000180025095e-35 3.5000000000000004 1.0000000180025095e-35 0.17223551302498674 0.1806669232578528 0.15515630035449568 0.24099474822366393
decision_type=2 2 2 2 2 2 2 2 2 2
left_child=2 4 3 -1 6 9 8 -3 -2 -5
right_child=1 7 -4 5 -6 -7 -8 -9 -10 -11
leaf_value=0.004273874058775262 0.010105022157652754 0.044728619944150415 -0.0046219675037807743 -0.032273869239180561 0.029132478994526496 -0.017378744603427847 0.011773257449786462 0.050229604735907186 -0.00054372331921024957 -0.017236130297021184
leaf_count=15433 6620 22304 105640 119519 72062 82982 41358 32853 9303 1926
internal_value=0 0.296695 -0.171355 -0.235908 0.208663 -0.259171 0.096571 0.480431 0.0395739 -0.320264
internal_count=510000 184500 325500 219860 129343 204427 57281 55157 15923 121445
shrinkage=0.1


Tree=41
num_leaves=11
num_cat=0
split_feature=22 12 12 12 12 12 22 12 22 22
split_gain=6037.93 2805.9 2246.75 761.587 580.651 473.813 340.707 318.526 307.004 234.187
threshold=5.5000000000000009 0.1976186336283707 0.17079298933692857 0.1420396826037037 0.22219778071075916 1.0000000180025095e-35 3.5000000000000004 0.23325203633350536 1.0000000180025095e-35 3.5000000000000004
decision_type=2 2 2 2 2 2 2 2 2 2
left_child=2 3 -1 5 6 -2 8 -3 -4 -6
right_child=1 7 4 -5 9 -7 -8 -9 -10 -11
leaf_value=-0.043223064951468493 0.020265744610871911 0.027521913884032502 0.0099557334417048459 0.0099238093154254709 -0.001303916215860195 -0.019705102531434968 -0.0014010825638874833 0.043861463222280204 -0.025978657256562177 0.022662564310761271
leaf_count=81298 8507 66454 6628 119082 30903 48349 31093 42762 60545 14379
internal_value=0 0.160072 -0.19411 0.030299 -0.0774009 -0.128896 -0.150713 0.341931 -0.219749 0.0685154
internal_count=510000 285154 224846 175938 143548 56856 98266 109216 67173 45282
shrinkage=0.1


Tree=42
num_leaves=11
num_cat=0
split_feature=10 1 1 10 10 10 10 10 10 10
split_gain=1305.86 179.777 172.816 109.931 91.5963 74.248 41.1133 32.5472 27.627 28.1633
threshold=0.18690056687605336 1.0000000180025095e-35 1.0000000180025095e-35 0.20331193760029251 0.17409419038408402 0.16067599606515168 1.0000000180025095e-35 0.2246943523239123 0.11112387001935957 0.16113350443230309
decision_type=2 2 2 2 2 2 2 2 2 2
left_child=1 4 3 -2 8 6 -3 -5 -1 -10
right_child=2 5 -4 7 -6 -7 -8 -9 9 -11
leaf_value=4.616198528951278e-05 0.0067483436156363513 -0.0051125389728123513 0.00052734724226057787 0.012350170179864811 0.00062451766976965445 -0.01014593873375453 -0.02644870046438428 0.017565617704161939 -0.0093919752622796532 -0.004710161672392299
leaf_count=13873 77420 2799 44674 79552 59928 26104 18144 45914 83962 57630
internal_value=0 -0.0662601 0.0955488 0.114657 -0.0467377 -0.159153 -0.234219 0.142881 -0.0677998 -0.0746752
internal_count=510000 262440 247560 202886 215393 47047 20943 125466 155465 141592
shrinkage=0.1


Tree=43
num_leaves=11
num_cat=0
split_feature=10 10 10 10 10 10 10 3 10 10
split_gain=1065.67 155.795 64.2625 35.9751 45.4945 19.7211 14.6126 13.3257 27.1715 11.4834
threshold=0.19194452202539772 0.17360612944364742 0.22229992229992232 1.0000000180025095e-35 0.16113350443230309 0.19863786759021615 0.17192705739111189 -1.0000000180025095e-35 0.16990720852306904 0.27841576406107277
decision_type=2 2 2 2 2 2 2 2 2 2
left_child=1 3 5 -1 -5 -2 7 8 -6 -4
right_child=2 -3 9 4 6 -7 -8 -9 -10 -11
leaf_value=-0.00051721258323736581 0.0045576383109938159 -0.00025358873200076942 0.013980219269611946 -0.010906523878263645 -0.031244238417450245 0.0087558565220867985 -0.010661160216789489 -0.0039304918731434269 0.017512880938711794 -0.00020960708276565444
leaf_count=15165 37094 104264 61977 104006 1296 118000 12058 54336 366 1438
internal_value=0 -0.0519304 0.0951364 -0.0804478 -0.0872787 0.0776624 -0.0546799 -0.0436483 -0.190401 0.136691
internal_count=510000 291491 218509 187227 172062 155094 68056 55998 1662 63415
shrinkage=0.1


Tree=44
num_leaves=11
num_cat=0
split_feature=4 5 5 5 4 5 5 5 5 4
split_gain=195.819 99.229 84.7389 15.2818 14.4849 11.4954 4.79831 2.99776 2.85236 0.350091
threshold=1.0000000180025095e-35 1.0000000180025095e-35 1.0000000180025095e-35 -1.0000000180025095e-35 -1.0000000180025095e-35 -1.0000000180025095e-35 1.5000000000000002 1.5000000000000002 1.5000000000000002 -1.0000000180025095e-35
decision_type=2 2 2 2 2 2 2 2 2 2
left_child=2 3 5 -2 6 -1 -4 -6 -3 -7
right_child=1 8 4 -5 7 9 -8 -9 -10 -11
leaf_value=-0.0037180851566539111 0.0016348371698391906 0.00025859035896486592 -0.006785324852755183 0.0094690142865769891 -0.0059159027253317207 0.0010666187012868598 0.0035816168411556023 -0.0039120123074002705 0.0023347461622708942 0.0025019448290828921
leaf_count=8580 6931 19891 1334 78664 23539 5227 8324 142831 123729 90950
internal_value=0 0.046354 -0.0165449 0.0885282 -0.0383691 0.0192937 0.0215521 -0.0419537 0.0205051 0.0242661
internal_count=510000 229215 280785 85595 176028 104757 9658 166370 143620 96177
shrinkage=0.1


Tree=45
num_leaves=11
num_cat=0
split_feature=18 18 18 18 18 18 18 18 18 5
split_gain=7427.46 1182.87 390.728 522.055 172.908 131.861 94.253 66.3678 60.8909 27.6547
threshold=6.5000000000000009 11.500000000000002 -1.0000000180025095e-35 1.5000000000000002 13.500000000000002 8.5000000000000018 2.5000000000000004 1.0000000180025095e-35 12.500000000000002 1.0000000180025095e-35
decision_type=2 2 2 2 2 2 2 2 2 2
left_child=2 5 -1 7 8 -2 -5 9 -3 -4
right_child=1 4 3 6 -6 -7 -8 -9 -10 -11
leaf_value=0.0025283184678177371 0.0012022183474808196 0.018638659828623935 -0.033189883522932999 -0.023655167845751026 0.033802834252897609 0.012273672056505626 -0.014181187615293606 -0.028642112182911322 0.025638545542517696 -0.041623254144280517
leaf_count=15152 76815 49217 20804 48167 38646 38531 89507 38010 60440 34711
internal_value=0 0.173147 -0.218676 -0.238068 0.255985 0.0509537 -0.173405 -0.343764 0.225618 -0.384118
internal_count=510000 263649 246351 231199 148303 115346 137674 93525 109657 55515
shrinkage=0.1


Tree=46
num_leaves=11
num_cat=0
split_feature=12 12 16 16 12 12 12 12 12 16
split_gain=4152.46 970.272 587.76 563.55 275.624 287.601 261.637 275.071 171.911 157.515
threshold=0.18127029517044171 0.23325203633350536 1.5000000000000002 2.5000000000000004 0.14828085283669853 1.0000000180025095e-35 0.1420396826037037 1.0000000180025095e-35 0.20964220312720103 2.5000000000000004
decision_type=2 2 2 2 2 2 2 2 2 2
left_child=2 3 6 8 5 -4 7 -1 -2 -3
right_child=1 9 4 -5 -6 -7 -8 -9 -10 -11
leaf_value=-0.0067221441303801435 -0.0023847883170934059 0.022393403237883167 0.010127957171746971 0.019047969008524665 -0.00096953862018447738 -0.022136561790947328 -0.018768612805303519 -0.041931522911543895 0.0086639693019396804 0.037224702746739301
leaf_count=7257 100236 54366 8029 62038 53979 50335 55269 41519 54900 22072
internal_value=0 0.125508 -0.170749 0.0700249 -0.0908762 -0.171504 -0.265655 -0.360535 0.0165834 0.269797
internal_count=510000 293612 216388 217174 112343 58364 104045 48776 155136 76438
shrinkage=0.1


Tree=47
num_leaves=11
num_cat=0
split_feature=18 18 18 18 18 18 18 18 18 18
split_gain=6051.37 968.534 318.804 430.631 142.618 108.544 77.7735 54.9329 50.155 23.5766
threshold=6.5000000000000009 11.500000000000002 -1.0000000180025095e-35 1.5000000000000002 13.500000000000002 9.5000000000000018 2.5000000000000004 1.0000000180025095e-35 12.500000000000002 5.5000000000000009
decision_type=2 2 2 2 2 2 2 2 2 2
left_child=2 5 -1 7 8 -2 -5 -4 -3 -8
right_child=1 4 3 6 -6 -7 9 -9 -10 -11
leaf_value=0.002151186948989785 0.0011756161713504518 0.016744584916928273 -0.034990818110045285 -0.021530568153049531 0.030553336531909149 0.011437215836544648 -0.013622655608408552 -0.026063949537123376 0.023113332327075239 -0.0024207111687759002
leaf_count=15152 79946 49217 55515 48167 38646 35400 84233 38010 60440 5274
internal_value=0 0.155511 -0.198922 -0.216517 0.230742 0.0449412 -0.157772 -0.312989 0.203118 -0.129052
internal_count=510000 263649 246351 231199 148303 115346 137674 93525 109657 89507
shrinkage=0.1


Tree=48
num_leaves=11
num_cat=0
split_feature=18 18 16 16 16 18 18 18 18 16
split_gain=4919.52 791.432 523.891 336.661 296.766 179.933 210.149 149.601 113.403 88.445
threshold=6.5000000000000009 10.500000000000002 2.5000000000000004 2.5000000000000004 1.5000000000000002 2.5000000000000004 -1.0000000180025095e-35 -1.0000000180025095e-35 1.0000000180025095e-35 1.0000000180025095e-35
decision_type=2 2 2 2 2 2 2 2 2 2
left_child=2 4 5 9 -2 6 -1 -4 -9 -3
right_child=1 3 7 -5 -6 -7 -8 8 -10 -11
leaf_value=-0.0067183424417315415 -0.0048828126326971181 0.010948875545625765 0.020867291597773063 0.031184095193190473 0.011221766865644101 -0.016215601470283319 -0.030710636970506352 -0.021402944280944594 -0.0045652210714401528 0.019646240514482716
leaf_count=10824 54355 44686 4328 43368 58561 63974 101186 15639 50400 62679
internal_value=0 0.140321 -0.179758 0.207239 0.0385035 -0.233465 -0.278308 -0.0604945 -0.0823765 0.16126
internal_count=510000 263649 246351 150733 112916 175984 112010 70367 66039 107365
shrinkage=0.1


Tree=49
num_leaves=11
num_cat=0
split_feature=21 21 7 7 7 7 7 7 21 7
split_gain=804.51 1638.13 240.878 329.321 232.275 139.21 254.266 195.252 109.764 108.207
threshold=5.5000000000000009 2.5000000000000004 3.5000000000000004 1.0000000180025095e-35 4.5000000000000009 3.5000000000000004 1.0000000180025095e-35 4.5000000000000009 1.0000000180025095e-35 3.5000000000000004
decision_type=2 2 2 2 2 2 2 2 2 2
left_child=1 8 3 -3 -4 6 -2 -7 -1 -10
right_child=5 2 4 -5 -6 7 -8 -9 9 -11
leaf_value=-0.0038531537974380533 0.016765866045542737 -0.0066475291947425165 0.00068089974810235903 -0.022027451637961583 -0.038568751608681055 0.022387603450508851 0.001817892797339248 -0.01734010014328926 0.0081309889981689767 0.019058826092346368
leaf_count=15281 44409 59698 42178 103951 4923 31206 76987 3709 99472 28186
internal_value=0 -0.0363929 -0.13155 -0.162215 -0.0296624 0.100602 0.0748004 0.18653 0.0915727 0.106269
internal_count=510000 353689 210750 163649 47101 156311 121396 34915 142939 127658
shrinkage=0.1


Tree=50
num_leaves=11
num_cat=0
split_feature=13 12 12 13 13 13 13 13 13 12
split_gain=8475.99 1931.97 1596.81 867.387 768.376 704.493 571.797 510.494 356.405 288.662
threshold=0.19354356237877898 0.19857965370691219 0.17079298933692857 0.14945695742238357 0.23098182356152086 0.15130709004903012 1.0000000180025095e-35 0.22774515694960543 1.0000000180025095e-35 0.16493261646075799
decision_type=2 2 2 2 2 2 2 2 2 2
left_child=1 3 7 6 -4 8 -1 -2 -3 -5
right_child=2 5 4 9 -6 -7 -8 -9 -10 -11
leaf_value=-0.0059409830414293777 -0.0086420290264088255 0.018534800157945928 0.02306289434509335 -0.028172342876911928 0.046008537677372521 0.0084144771881384684 -0.04945695356725513 0.017994152374068248 -0.022865104235743797 -0.011057707684380524
leaf_count=9442 40432 5648 78360 58607 55602 65035 67186 35497 41840 52351
internal_value=0 -0.179671 0.237157 -0.28977 0.330856 -0.0189585 -0.434269 0.0438321 -0.172823 -0.197063
internal_count=510000 300109 209891 187586 133962 112523 76628 75929 47488 110958
shrinkage=0.1


Tree=51
num_leaves=11
num_cat=0
split_feature=20 20 6 20 6 20 6 6 6 20
split_gain=11952.1 1329.91 1307.67 901.667 663.93 660.828 556.899 436.417 324.284 304.687
threshold=0.18599773784890913 0.22815577374682297 4.5000000000000009 0.14160020237652007 4.5000000000000009 1.0000000180025095e-35 4.5000000000000009 3.5000000000000004 3.5000000000000004 0.15697362983822835
decision_type=2 2 2 2 2 2 2 2 2 2
left_child=2 6 3 5 8 -1 -2 -5 -3 -4
right_child=1 4 9 7 -6 -7 -8 -9 -10 -11
leaf_value=0.0071982389104824135 0.018041149023309361 0.035171289251881864 -0.053418469172540672 -0.014047292560310391 0.015916555269442949 -0.034769210825436166 -0.0070943153436609993 0.01039673355162197 0.054515050610211148 -0.030026167629738733
leaf_count=10797 83337 68326 48004 67901 35362 88326 31468 25755 25861 24863
internal_value=0 0.241846 -0.251032 -0.181616 0.34458 -0.296018 0.115835 -0.0690461 0.407895 -0.450725
internal_count=510000 244354 265646 192779 129549 99123 114805 93656 94187 72867
shrinkage=0.1


Tree=52
num_leaves=11
num_cat=0
split_feature=1 11 11 11 11 11 11 11 11 11
split_gain=286.474 57.3825 12.3991 7.85355 10.2292 7.97903 6.86434 7.52983 6.28926 15.5345
threshold=1.0000000180025095e-35 0.19159884426211435 0.17277887186384236 0.20516525863346677 0.20822269958094167 0.20473289437958189 0.14937931034482763 0.13979768638842177 0.13463936313063499 0.15452412885986674
decision_type=2 2 2 2 2 2 2 2 2 2
left_child=1 2 6 5 -5 -3 7 -1 -2 -10
right_child=8 3 -4 4 -6 -7 -8 -9 9 -11
leaf_value=-0.00042655159048955119 -0.0016843574723655157 0.003613618467616412 0.0017969290585054002 0.0092915654163690312 0.0047508895337899371 -0.0078592842347716112 -0.0012885295601973157 0.0044332101659691776 -0.016248024400924415 -0.0074872886431349402
leaf_count=21987 4346 85249 125015 15301 71743 1610 84378 12996 6040 81335
internal_value=0 0.0228126 0.00682634 0.0448956 0.0556135 0.034041 -0.00494846 0.0139143 -0.0777318 -0.0807895
internal_count=510000 418279 244376 173903 87044 86859 119361 34983 91721 87375
shrinkage=0.1


Tree=53
num_leaves=11
num_cat=0
split_feature=19 19 19 19 19 19 19 5 5 5
split_gain=3367.32 680.184 504.075 373.301 117.093 90.2735 88.6637 38.1481 35.4868 34.825
threshold=14.500000000000002 5.5000000000000009 -1.0000000180025095e-35 20.500000000000004 2.5000000000000004 18.500000000000004 8.5000000000000018 1.0000000180025095e-35 1.0000000180025095e-35 1.0000000180025095e-35
decision_type=2 2 2 2 2 2 2 2 2 2
left_child=1 2 -1 5 -4 7 8 -2 -3 -8
right_child=3 6 4 -5 -6 -7 9 -9 -10 -11
leaf_value=0.0075857441317616018 0.011150469432261173 -0.0041695480774287799 -0.027540682213399316 0.023652760926156431 -0.016962154554951904 0.015133687026265755 0.0023410220452028912 0.0044407299799976508 -0.01362676854198569 -0.0037128630637464737
leaf_count=15171 33694 17176 80007 73103 47470 53172 39320 56296 28999 65592
internal_value=0 -0.11431 -0.198894 0.148312 -0.235215 0.100892 -0.0395993 0.0700145 -0.100331 -0.0140345
internal_count=510000 293735 142648 216265 127477 143162 151087 89990 46175 104912
shrinkage=0.1


Tree=54
num_leaves=11
num_cat=0
split_feature=18 9 18 18 9 18 18 9 18 18
split_gain=4046.31 651.462 368.007 287.529 236.245 190.665 164.512 136.1 114.723 92.6294
threshold=7.5000000000000009 0.19430479638856893 12.500000000000002 3.5000000000000004 0.19430479638856893 4.5000000000000009 -1.0000000180025095e-35 0.19430479638856893 -1.0000000180025095e-35 1.0000000180025095e-35
decision_type=2 2 2 2 2 2 2 2 2 2
left_child=1 3 4 6 -2 8 -1 -4 -3 -8
right_child=2 5 7 -5 -6 -7 9 -9 -10 -11
leaf_value=-0.0056964157363948512 0.0041413648509204077 0.014816104954997947 0.017519472106252969 -0.011622813882473298 0.01856829792724286 0.0088306264370632704 -0.034959826097403064 0.02897520403504867 -0.0095568827018033473 -0.023782350732660835
leaf_count=10148 78871 5004 66660 74194 38390 25567 37299 32426 66106 75335
internal_value=0 -0.136983 0.149758 -0.195592 0.090657 -0.0256604 -0.251041 0.214002 -0.0742162 -0.273099
internal_count=510000 293653 216347 196976 117261 96677 122782 99086 71110 112634
shrinkage=0.1


Tree=55
num_leaves=11
num_cat=0
split_feature=20 15 15 20 20 20 20 20 20 15
split_gain=9719.89 1741.08 1061.22 677.732 528.053 477.053 417.322 380.019 320.399 219.346
threshold=0.18599773784890913 2.5000000000000004 2.5000000000000004 0.22815577374682297 0.14452619309779283 0.15801970602487483 0.23386432164230114 1.0000000180025095e-35 1.0000000180025095e-35 1.5000000000000002
decision_type=2 2 2 2 2 2 2 2 2 2
left_child=2 3 4 -2 7 8 -3 -1 -4 -5
right_child=1 6 5 9 -6 -7 -8 -9 -10 -11
leaf_value=-0.0091834840331638454 0.00042429228567884207 0.028197854873083489 0.019139567263585119 0.014393666178735949 -0.020866806333088298 0.0071779556309046165 0.049289910288251554 -0.043612580107273001 -0.02151653994972599 0.030322298873933069
leaf_count=10001 76764 41740 4993 53182 80760 29500 38735 87195 53197 33933
internal_value=0 0.217062 -0.228303 0.11766 -0.308396 -0.0872911 0.388215 -0.396841 -0.175329 0.209954
internal_count=510000 244354 265646 163879 177956 87690 80475 97196 58190 87115
shrinkage=0.1


Tree=56
num_leaves=11
num_cat=0
split_feature=6 6 6 6 6 3 3 6 6 3
split_gain=2081.28 1106.36 1031.3 499.008 113.336 10.3069 4.65937 3.60215 3.22809 1.55479
threshold=4.5000000000000009 3.5000000000000004 1.5000000000000002 1.0000000180025095e-35 2.5000000000000004 -1.0000000180025095e-35 -1.0000000180025095e-35 -1.0000000180025095e-35 -1.0000000180025095e-35 1.0000000180025095e-35
decision_type=2 2 2 2 2 2 2 2 2 2
left_child=1 2 3 5 -4 7 -2 -1 -7 -6
right_child=6 -3 4 -5 9 8 -8 -9 -10 -11
leaf_value=-0.026920381828267382 -0.011549864926418393 0.020088832135254545 -0.019573911283280475 0.010967802269476868 -0.041900732090195243 -0.0014241327588457387 -0.017359430279910004 -0.010709704471173066 -0.0040312522512890485 -0.036756997460596068
leaf_count=486 4181 101432 22607 129618 7638 14938 135516 2695 86503 4386
internal_value=0 0.0640378 0.00855614 0.0450193 -0.264224 -0.0393295 -0.171842 -0.13198 -0.0364796 -0.4004
internal_count=510000 370303 268871 234240 34631 104622 139697 3181 101441 12024
shrinkage=0.1


Tree=57
num_leaves=11
num_cat=0
split_feature=20 20 20 20 20 20 20 20 20 20
split_gain=7889.33 888.552 832.447 521.007 290.733 233.177 121.935 83.3495 32.5551 29.315
threshold=0.18599773784890913 0.22796658299602865 0.15861755469310471 1.0000000180025095e-35 0.13591474624188374 0.25215213680712351 0.19975240416256171 0.12369638740267086 0.10991071879724967 0.16236189284969776
decision_type=2 2 2 2 2 2 2 2 2 2
left_child=2 6 3 -1 7 -3 -2 8 -5 -4
right_child=1 5 9 4 -6 -7 -8 -9 -10 -11
leaf_value=0.0011763334670112473 0.0012471788962759574 0.022250285818698149 -0.015525046388385304 -0.05155771077159952 -0.021246800969918225 0.035175889277595553 0.012518012958388556 -0.031592135383619234 -0.039372647740039006 -0.0064214316820871576
leaf_count=14994 35586 76087 11238 8569 61029 55396 77285 55785 38639 75392
internal_value=0 0.195393 -0.206216 -0.274257 -0.303782 0.278376 0.0905549 -0.360872 -0.415358 -0.0757685
internal_count=510000 244354 265646 179016 164022 131483 112871 102993 47208 86630
shrinkage=0.1


Tree=58
num_leaves=11
num_cat=0
split_feature=17 17 17 17 17 17 11 11 11 11
split_gain=8728.04 1113.12 789.823 423.956 417.661 309.911 19.5887 13.6313 13.6108 22.9071
threshold=2.5000000000000004 4.5000000000000009 1.5000000000000002 3.5000000000000004 -1.0000000180025095e-35 1.0000000180025095e-35 0.17301875507326872 0.1806669232578528 0.20698214883142954 0.21283969698034122
decision_type=2 2 2 2 2 2 2 2 2 2
left_child=2 3 4 6 -1 8 -2 -3 -6 -10
right_child=1 7 -4 -5 5 -7 -8 -9 9 -11
leaf_value=0.0024337407567132795 0.0026281316957635264 0.040030660813749258 -0.0056879617085754397 0.025290215232686972 -0.031702285659353638 -0.017383256570736565 0.0091548694860961993 0.044912340618198945 -0.018888452430079968 -0.030681820714682451
leaf_count=15433 16612 22304 105640 72062 98822 82982 40669 32853 7044 15579
internal_value=0 0.25846 -0.171536 0.176551 -0.230734 -0.252052 0.0730996 0.429715 -0.308071 -0.269416
internal_count=510000 184500 325500 129343 219860 204427 57281 55157 121445 22623
shrinkage=0.1


Tree=59
num_leaves=11
num_cat=0
split_feature=10 9 9 9 9 10 10 10 10 10
split_gain=894.646 495.976 322.223 150.913 157.237 56.0637 54.9019 43.6386 38.9096 35.0134
threshold=0.18690056687605336 0.19430479638856893 0.19430479638856893 0.16066118615497774 1.0000000180025095e-35 0.16067599606515168 0.22674951948278879 0.19972635097826721 0.16922010028806148 1.0000000180025095e-35
decision_type=2 2 2 2 2 2 2 2 2 2
left_child=1 5 3 4 7 9 -5 -2 -3 -1
right_child=2 8 -4 6 -6 -7 -8 -9 -10 -11
leaf_value=-0.0060918371330560342 -0.013813724994045677 0.00051512086067509216 0.014949282215008795 0.0029349871803277558 -0.024287514053848557 -0.0090860592886720538 0.010485346339497086 0.013552097936644612 0.007475192452852184 -0.016473739897898503
leaf_count=10243 2155 52431 81086 117493 11058 97468 30390 5378 33976 68322
internal_value=0 -0.0654233 0.069844 0.0286614 -0.111286 -0.117167 0.0453095 0.0621032 0.0330776 -0.150727
internal_count=510000 262440 247560 166474 18591 176033 147883 7533 86407 78565
shrinkage=0.1


Tree=60
num_leaves=11
num_cat=0
split_feature=22 8 22 22 22 8 8 8 8 8
split_gain=5030.91 1010.92 705.023 532.079 559.402 378.341 211.996 202.143 198.137 197.732
threshold=4.5000000000000009 4.5000000000000009 9.5000000000000018 1.0000000180025095e-35 2.5000000000000004 3.5000000000000004 4.5000000000000009 2.5000000000000004 1.5000000000000002 -1.0000000180025095e-35
decision_type=2 2 2 2 2 2 2 2 2 2
left_child=3 2 5 -1 6 8 -5 -4 9 -2
right_child=1 -3 7 4 -6 -7 -8 -9 -10 -11
leaf_value=0.0038193826677968565 0.013400381058867409 0.026923416277807418 0.026380642992233184 -0.043071516129080258 -0.017456379703366189 -0.0095088787485944487 -0.020901806872458337 0.010943362475958758 0.0085521938615904097 -0.018488759719270564
leaf_count=15279 7195 68839 36250 63162 72021 66025 15824 46354 102907 16144
internal_value=0 0.105362 0.0607722 -0.247354 -0.279954 0.0061428 -0.383575 0.179421 0.0563098 -0.0798128
internal_count=510000 343714 274875 166286 151007 192271 78986 82604 126246 23339
shrinkage=0.1


Tree=61
num_leaves=11
num_cat=0
split_feature=16 10 10 16 16 16 16 10 10 16
split_gain=922.949 530.076 228.802 167.738 126.273 125.001 76.6142 64.0128 44.8946 38.6643
threshold=2.5000000000000004 0.18111721883821127 0.18861742706757306 1.0000000180025095e-35 -1.0000000180025095e-35 1.0000000180025095e-35 3.5000000000000004 0.19972635097826721 0.17089143052967512 -1.0000000180025095e-35
decision_type=2 2 2 2 2 2 2 2 2 2
left_child=1 5 -2 4 -3 9 -4 -5 -7 -1
right_child=2 3 6 7 -6 8 -8 -9 -10 -11
leaf_value=-0.0053895791916330283 0.0045531325988811223 0.013768646286516105 0.010985483237315671 1.4049094750313248e-05 -0.0067969017364809415 -0.0099236287700258594 0.021385836800818934 0.0077717990248467291 -0.0017787404160908894 -0.01860149767759323
leaf_count=6897 78016 8350 30074 44096 75578 70348 37949 72889 24703 61100
internal_value=0 -0.0437648 0.105149 0.0106883 -0.0458886 -0.115735 0.169041 0.0492021 -0.0775322 -0.172021
internal_count=510000 363961 146039 200913 83928 163048 68023 116985 95051 67997
shrinkage=0.1


Tree=62
num_leaves=11
num_cat=0
split_feature=18 19 19 18 19 19 19 18 19 19
split_gain=3392.17 1721.61 1127.69 338.894 269.251 268.032 264.749 188.643 150.889 144.565
threshold=8.5000000000000018 14.500000000000002 8.5000000000000018 5.5000000000000009 19.500000000000004 16.500000000000004 5.5000000000000009 3.5000000000000004 -1.0000000180025095e-35 -1.0000000180025095e-35
decision_type=2 2 2 2 2 2 2 2 2 2
left_child=1 3 9 6 7 -4 8 -3 -1 -2
right_child=2 4 5 -5 -6 -7 -8 -9 -10 -11
leaf_value=-0.011874176072542269 0.022175003526641191 -0.012864969124532938 0.016611975479612792 -0.011061545361713089 0.0098486372383713976 0.030549096078496596 -0.020158214262710666 0.0041144159436602105 -0.039124925782444843 -0.0028431500662339324
leaf_count=7140 5530 41345 59856 47278 64064 57809 71422 31723 60194 63639
internal_value=0 -0.113066 0.153025 -0.227206 0.0228981 0.236784 -0.275466 -0.0474584 -0.359696 -0.00658764
internal_count=510000 323166 186834 186034 137132 117665 138756 73068 67334 69169
shrinkage=0.1


Tree=63
num_leaves=11
num_cat=0
split_feature=2 7 7 7 7 7 7 7 7 7
split_gain=944.506 347.535 503.523 353.616 117.09 101.655 138.843 149.936 64.0803 44.4021
threshold=1.0000000180025095e-35 3.5000000000000004 1.0000000180025095e-35 4.5000000000000009 2.5000000000000004 1.0000000180025095e-35 3.5000000000000004 4.5000000000000009 1.5000000000000002 -1.0000000180025095e-35
decision_type=2 2 2 2 2 2 2 2 2 2
left_child=1 2 -1 -3 8 9 -7 -8 -4 -2
right_child=5 3 4 -5 -6 6 7 -9 -10 -11
leaf_value=0.0017868570574555806 0.0019830421622246785 0.0082370990199143058 -0.017293538551071793 -0.027835721774852697 -0.01626760269223684 0.004235786640074902 0.020261587535942774 -0.016495636701287345 -0.0055100231002823043 0.019289655776710823
leaf_count=105332 4094 74279 16204 8809 102027 68188 27308 3247 65459 35053
internal_value=0 -0.0431647 -0.070739 0.0483832 -0.124436 0.109847 0.0827196 0.167945 -0.0778626 0.175691
internal_count=510000 372110 289022 83088 183690 137890 98743 30555 81663 39147
shrinkage=0.1


Tree=64
num_leaves=11
num_cat=0
split_feature=15 19 19 15 19 15 15 19 15 15
split_gain=2351.17 1264.48 1164.04 326.91 302.105 180.609 154.459 125.929 113.853 96.5445
threshold=1.5000000000000002 12.500000000000002 13.500000000000002 2.5000000000000004 18.500000000000004 2.5000000000000004 1.0000000180025095e-35 8.5000000000000018 2.5000000000000004 1.0000000180025095e-35
decision_type=2 2 2 2 2 2 2 2 2 2
left_child=2 3 6 -2 5 -3 -1 -8 -6 -4
right_child=1 4 9 -5 8 -7 7 -9 -10 -11
leaf_value=-0.0050026814071973064 -0.012178466994313446 0.0027956213020238381 0.016019279717626879 0.0037043061938120216 0.01765760245096815 0.017275050496747438 -0.032885426457548057 -0.019699736456442879 0.029600409153042948 -0.0029389468485487946
leaf_count=8354 61783 37735 7139 78571 33029 48069 71720 31568 41525 90507
internal_value=0 0.0865316 -0.140565 -0.0287912 0.176565 0.112542 -0.266985 -0.286574 0.245652 -0.0141776
internal_count=510000 300712 209288 140354 160358 85804 111642 103288 74554 97646
shrinkage=0.1


Tree=65
num_leaves=11
num_cat=0
split_feature=21 21 21 21 4 4 4 21 21 21
split_gain=664.094 1345.74 90.6228 63.98 59.7096 53.6134 43.5168 25.393 24.2686 17.4905
threshold=5.5000000000000009 2.5000000000000004 1.0000000180025095e-35 6.5000000000000009 1.0000000180025095e-35 1.0000000180025095e-35 1.0000000180025095e-35 1.5000000000000002 1.5000000000000002 3.5000000000000004
decision_type=2 2 2 2 2 2 2 2 2 2
left_child=1 2 -1 -2 7 -3 -5 -4 -6 -7
right_child=3 5 4 6 8 9 -8 -9 -10 -11
leaf_value=-0.0040885377204230638 0.0056008156090191167 -0.014993050610480297 0.0086467455132029029 0.0085013736141299583 0.015727245502206236 -0.0072022652540796872 0.016217003574152424 0.0024974119552312875 0.0091607280490442772 -0.011737152507203245
leaf_count=15281 82639 116141 39736 40562 32286 43353 33110 30602 25034 51256
internal_value=0 -0.0386143 0.078241 0.0868315 0.0916975 -0.125569 0.120441 0.0601408 0.129088 -0.0964469
internal_count=510000 353689 142939 156311 127658 210750 73672 70338 57320 94609
shrinkage=0.1


Tree=66
num_leaves=11
num_cat=0
split_feature=0 19 19 19 19 19 19 19 19 19
split_gain=3443.05 1736.72 474.416 239.306 242.045 138.205 74.9837 55.9901 36.4357 45.2778
threshold=1.0000000180025095e-35 8.5000000000000018 18.500000000000004 -1.0000000180025095e-35 3.5000000000000004 18.500000000000004 23.500000000000004 14.500000000000002 10.500000000000002 -1.0000000180025095e-35
decision_type=2 2 2 2 2 2 2 2 2 2
left_child=1 3 7 -1 -5 8 -4 -3 9 -2
right_child=5 2 6 4 -6 -7 -8 -9 -10 -11
leaf_value=0.010408138663043395 -0.02687584328540786 0.0030253931256176794 0.016045002127338691 -0.017836678244417932 -0.0046457542689667649 -0.030364834696027916 0.024694581577607358 0.0087064150762487438 -0.046079952895961035 -0.060591279115351407
leaf_count=13834 1337 95552 82081 86146 71789 11196 32998 81998 15513 17556
internal_value=0 0.0392351 0.110002 -0.0973591 -0.116734 -0.464939 0.185847 0.057124 -0.523848 -0.579668
internal_count=510000 464398 292629 171769 157935 45602 115079 177550 34406 18893
shrinkage=0.1


Tree=67
num_leaves=11
num_cat=0
split_feature=19 19 21 21 21 21 21 21 19 19
split_gain=1528.09 380.23 241.737 448.049 166.775 324.169 140.162 328.719 104.834 96.644
threshold=10.500000000000002 18.500000000000004 5.5000000000000009 2.5000000000000004 5.5000000000000009 2.5000000000000004 5.5000000000000009 2.5000000000000004 -1.0000000180025095e-35 -1.0000000180025095e-35
decision_type=2 2 2 2 2 2 2 2 2 2
left_child=2 6 3 -1 5 -3 7 -2 -4 -5
right_child=1 4 8 9 -6 -7 -8 -9 -10 -11
leaf_value=-0.0042538390607068897 0.0088539023560744324 0.02060776414817252 0.019719674410285704 -0.0034132801630018246 0.021702361695645857 0.0013585495677024451 0.0087904804527930147 -0.0081833081627325881 -0.0048497214631074122 -0.025062379497339846
leaf_count=58749 48732 35458 4639 6206 38615 52202 53351 72675 59706 79667
internal_value=0 0.07056 -0.112211 -0.151559 0.134492 0.0959062 0.0211254 -0.00977518 -0.0288878 -0.233624
internal_count=510000 301033 208967 144622 126275 87660 174758 121407 64345 85873
shrinkage=0.1


Tree=68
num_leaves=11
num_cat=0
split_feature=13 22 22 13 13 13 13 13 13 22
split_gain=7005.44 2473.72 1849.48 996.921 542.774 519.181 434.151 362.576 320.243 238.809
threshold=0.18329395586647348 5.5000000000000009 4.5000000000000009 0.22774515694960543 0.14945695742238357 0.21677973220066063 1.0000000180025095e-35 0.15130709004903012 1.0000000180025095e-35 9.5000000000000018
decision_type=2 2 2 2 2 2 2 2 2 2
left_child=1 7 5 9 6 -2 -3 8 -1 -4
right_child=2 4 3 -5 -6 -7 -8 -9 -10 -11
leaf_value=-0.01561801368167931 -0.016626825149632235 0.015446844877689587 0.011793636505793757 0.040799084087858248 0.0026737084050386861 0.0098783808213915528 -0.022589450191807418 -0.030456303361282619 -0.055554037840911411 0.028066296240679661
leaf_count=6611 40705 8479 71198 66200 77244 40324 60152 59504 49082 30501
internal_value=0 -0.198134 0.182343 0.268952 -0.0634173 -0.0279628 -0.172649 -0.396755 -0.502282 0.169184
internal_count=510000 261072 248928 167899 145875 81029 68631 115197 55693 101699
shrinkage=0.1


Tree=69
num_leaves=11
num_cat=0
split_feature=8 8 8 8 8 8 5 5 5 5
split_gain=1226.54 690.929 468.429 411.518 247.908 83.9123 49.0859 47.4348 31.0973 19.5788
threshold=4.5000000000000009 3.5000000000000004 1.5000000000000002 2.5000000000000004 -1.0000000180025095e-35 1.0000000180025095e-35 1.0000000180025095e-35 1.0000000180025095e-35 1.0000000180025095e-35 -1.0000000180025095e-35
decision_type=2 2 2 2 2 2 2 2 2 2
left_child=1 2 4 6 -1 -6 9 -3 -2 -4
right_child=8 7 3 -5 5 -7 -8 -9 -10 -11
leaf_value=0.0029190215178209133 0.018903430529765567 -0.0096887356308009084 0.0024757359686998592 -0.0048109520677909329 -0.01607483211953065 -0.03364112530722986 0.0070674818642618379 -0.016024288461654282 0.013219042432004334 0.014431159472976169
leaf_count=15433 38154 52354 3915 88944 22432 12099 81043 87753 63709 44164
internal_value=0 -0.0405009 0.00683914 0.0383085 -0.139109 -0.220477 0.0950432 -0.136199 0.153861 0.134972
internal_count=510000 408137 268030 218066 49964 34531 129122 140107 101863 48079
shrinkage=0.1


Tree=70
num_leaves=11
num_cat=0
split_feature=13 0 0 13 13 13 13 13 13 13
split_gain=5747.6 1689.05 1120.31 1077.61 693.696 565.334 259.735 175.091 142.737 98.0415
threshold=0.19662095680578109 1.0000000180025095e-35 1.0000000180025095e-35 0.15130709004903012 0.24233834673532126 1.0000000180025095e-35 0.17494114719697582 0.11972000389181937 0.21677973220066063 0.25323565731481279
decision_type=2 2 2 2 2 2 2 2 2 2
left_child=1 3 4 5 8 -1 -5 -7 -2 -4
right_child=2 -3 9 6 -6 7 -8 -9 -10 -11
leaf_value=0.006202727658776613 0.01138256676418874 -0.057445417850726044 -0.028601429121112784 -0.009452804281080078 0.036267502184858649 -0.0415895730269219 0.003236253222643442 -0.02470058923497382 0.022507850766002993 -8.605225649751196e-05
leaf_count=13762 64804 28077 13051 86610 62885 24521 84860 77146 49810 4474
internal_value=0 -0.144967 0.204374 -0.110109 0.237982 -0.239333 -0.0302151 -0.28635 0.163476 -0.20806
internal_count=510000 314976 195024 286899 177499 115429 171470 101667 114614 17525
shrinkage=0.1


Tree=71
num_leaves=8
num_cat=0
split_feature=1 1 3 3 3 3 3
split_gain=240.432 1.84668 14.8476 0.743059 0.909733 0.394319 0.0742717
threshold=1.0000000180025095e-35 -1.0000000180025095e-35 -1.0000000180025095e-35 1.0000000180025095e-35 -1.0000000180025095e-35 1.0000000180025095e-35 1.0000000180025095e-35
decision_type=2 2 2 2 2 2 2
left_child=1 2 -1 4 -3 -4 -2
right_child=6 3 5 -5 -6 -7 -8
leaf_value=-0.030688516231422699 -0.0077997913731217561 0.0029788132921558658 0.00010165356432808236 0.0020546986710368517 0.0015167525263332364 0.0018624451333032852 -0.0072532071068805264
leaf_count=442 58674 12026 9366 145139 245808 5498 33047
internal_value=0 0.0168987 -0.00043341 0.0175593 0.0158642 0.00773337 -0.0760578
internal_count=510000 418279 15306 402973 257834 14864 91721
shrinkage=0.1


Tree=72
num_leaves=8
num_cat=0
split_feature=0 4 4 0 4 0 0
split_gain=2283.2 125.438 10.5494 7.05591 4.88648 1.35977 0.266985
threshold=1.0000000180025095e-35 1.0000000180025095e-35 1.0000000180025095e-35 -1.0000000180025095e-35 -1.0000000180025095e-35 -1.0000000180025095e-35 -1.0000000180025095e-35
decision_type=2 2 2 2 2 2 2
left_child=1 4 -2 -3 6 -6 -1
right_child=2 3 -4 -5 5 -7 -8
leaf_value=-0 -0.040667693187437633 0.00088458489091258372 -0.035021585821850942 0.0062098781830499626 -0.0015360873871774422 0.00062323772873793557 0.0037739307346826563
leaf_count=429 25227 6805 20375 202035 7952 233607 13570
internal_value=0 0.0315547 -0.381103 0.0604091 0.00725272 0.00551796 0.0364899
internal_count=510000 464398 45602 208840 255558 241559 13999
shrinkage=0.1


Tree=73
num_leaves=11
num_cat=0
split_feature=22 12 12 12 12 12 22 22 12 12
split_gain=3531.74 1651.96 1320.75 478.999 336.924 324.848 235.969 282.435 207.699 191.471
threshold=5.5000000000000009 0.20011641443539002 0.18127029517044171 0.1420396826037037 0.23677088482451805 1.0000000180025095e-35 2.5000000000000004 1.0000000180025095e-35 0.24960813801366935 0.1470298618353251
decision_type=2 2 2 2 2 2 2 2 2 2
left_child=2 3 9 5 6 -2 7 -4 -3 -1
right_child=1 8 4 -5 -6 -7 -8 -9 -10 -11
leaf_value=-0.040980656572144329 0.016501353054031637 0.022212230136289202 0.008817908758834439 0.0068722723131666302 0.0083353015195803039 -0.017074186311330588 -0.0042967617809936123 -0.027641943496525989 0.037934485304184556 -0.025047952073487256
leaf_count=47363 8507 78254 6594 125831 30921 48349 57496 34480 24213 47992
internal_value=0 0.111895 -0.163461 0.015906 -0.0599211 -0.113383 -0.109068 -0.209373 0.261292 -0.326648
internal_count=510000 285154 224846 182687 129491 56856 98570 41074 102467 95355
shrinkage=0.1


Tree=74
num_leaves=11
num_cat=0
split_feature=6 6 6 6 6 11 11 11 11 11
split_gain=1703.55 902.68 844.789 409.626 92.1521 34.2637 29.5463 27.8494 25.0894 23.5671
threshold=4.5000000000000009 3.5000000000000004 1.5000000000000002 1.0000000180025095e-35 2.5000000000000004 0.18149143259424796 0.20698214883142954 0.19089023010184838 0.17301875507326872 0.19258008008008012
decision_type=2 2 2 2 2 2 2 2 2 2
left_child=1 2 3 -1 8 -2 -5 -6 -4 -9
right_child=5 -3 4 6 7 -7 -8 9 -10 -11
leaf_value=-0.003856585920231618 -0.019092679895995997 0.018024054223946342 -0.027056870655959173 0.0085725129490747242 -0.044293419441668501 -0.013722804406372666 0.014724295946368572 0.012239613064323021 -0.01456736471587896 -0.030585215751149065
leaf_count=104622 58279 101432 6648 105490 6844 81418 24128 345 15959 4835
internal_value=0 0.0556891 0.00519603 0.0384318 -0.243673 -0.159364 0.0974506 -0.367534 -0.181426 -0.272847
internal_count=510000 370303 268871 234240 34631 139697 129618 12024 22607 5180
shrinkage=0.1


Tree=75
num_leaves=11
num_cat=0
split_feature=7 7 7 7 7 7 11 11 11 11
split_gain=316.32 557.565 410.617 117.944 66.2411 44.8845 33.9166 18.4286 16.7856 14.2366
threshold=3.5000000000000004 1.0000000180025095e-35 4.5000000000000009 2.5000000000000004 1.5000000000000002 -1.0000000180025095e-35 0.15583134813904045 0.20300126355823003 0.17434457540239645 0.20098677406402474
decision_type=2 2 2 2 2 2 2 2 2 2
left_child=1 5 -2 4 -3 8 -6 9 -1 -5
right_child=2 3 -4 7 6 -7 -8 -9 -10 -11
leaf_value=-0.010732960813186377 0.010544810202680572 -0.011105053905183111 -0.022373159592607279 -0.010843764418051724 -0.0097958240763502246 0.006660653604170382 0.00013338817478594442 -0.0067481100859819081 0.00092583666100255323 -0.020867729114710097
leaf_count=4832 101587 22333 12056 102921 10659 129129 78696 33021 10518 4248
internal_value=0 -0.0216831 0.074465 -0.0693786 -0.0298206 0.0569873 -0.01017 -0.101643 -0.0261438 -0.11234
internal_count=510000 396357 113643 251878 111688 144479 89355 140190 15350 107169
shrinkage=0.1


Tree=76
num_leaves=11
num_cat=0
split_feature=0 19 19 19 19 19 19 19 19 19
split_gain=1858.59 1176.6 343.735 184.206 144.211 99.4896 65.4535 49.0345 23.7803 34.5056
threshold=1.0000000180025095e-35 7.5000000000000009 18.500000000000004 -1.0000000180025095e-35 3.5000000000000004 16.500000000000004 22.500000000000004 14.500000000000002 -1.0000000180025095e-35 2.5000000000000004
decision_type=2 2 2 2 2 2 2 2 2 2
left_child=1 3 7 -1 -5 8 -4 -3 -2 -10
right_child=5 2 6 4 -6 -7 -8 -9 9 -11
leaf_value=0.0083344307769594346 -0.017235629481015962 0.0017722403173212557 0.011072609066041711 -0.015633377356724314 -0.0046938019366418223 -0.022744130042561969 0.018457519590630404 0.0069307782720470727 -0.053171344478191912 -0.038177260890623808
leaf_count=13834 1337 110832 57110 86146 56509 14010 57969 81998 7220 23035
internal_value=0 0.0282796 0.0826597 -0.09286 -0.111749 -0.345095 0.148499 0.0402856 -0.404215 -0.415216
internal_count=510000 464398 307909 156489 142655 45602 115079 192830 31592 30255
shrinkage=0.1


Tree=77
num_leaves=11
num_cat=0
split_feature=18 18 16 16 16 18 18 18 18 18
split_gain=2897.48 528.751 379.592 242.128 206.342 142.758 116.049 88.6036 104.004 78.2048
threshold=5.5000000000000009 11.500000000000002 1.5000000000000002 2.5000000000000004 1.5000000000000002 -1.0000000180025095e-35 1.0000000180025095e-35 2.5000000000000004 -1.0000000180025095e-35 13.500000000000002
decision_type=2 2 2 2 2 2 2 2 2 2
left_child=2 4 7 9 -2 -4 -7 8 -1 -3
right_child=1 3 5 -5 -6 6 -8 -9 -10 -11
leaf_value=-0.0078493848497889276 -0.005019957053489843 0.0093670215826259923 0.01148440540828502 0.024940913384392756 0.0081157788679279506 -0.020329269268969233 -0.007262644353680606 -0.016058440021195847 -0.028994935635169073 0.018590146791566856
leaf_count=7192 58038 77958 7960 42662 62582 28616 88353 40633 68323 27683
internal_value=0 0.100933 -0.149035 0.15832 0.020964 -0.0851881 -0.102041 -0.225729 -0.264528 0.118637
internal_count=510000 268923 241077 148303 120620 124929 116969 116148 75515 105641
shrinkage=0.1


Tree=78
num_leaves=11
num_cat=0
split_feature=2 11 2 11 11 11 11 11 11 11
split_gain=789.433 21.4357 25.0867 15.9952 11.3171 11.1493 9.28851 10.7798 7.80497 12.6689
threshold=1.0000000180025095e-35 0.19104732320908119 -1.0000000180025095e-35 0.16990967358087464 0.18955146161028516 0.18585229115507579 0.18363052655750448 0.1806669232578528 0.20215637775036652 0.21597665369649807
decision_type=2 2 2 2 2 2 2 2 2 2
left_child=1 2 -1 -2 5 6 7 -4 -5 -10
right_child=3 -3 4 8 -6 -7 -8 -9 9 -11
leaf_value=0.0032580477858152562 0.0070161679945954505 -0.002636420907591842 -0.0058610239580736212 0.0099853332705795387 -0.011640000799634074 -0.0018378566140283222 -0.0099224635918581019 -0.0013526896836497072 0.015452466479559125 0.0092674797388292759
leaf_count=8866 34479 157823 144529 69690 8286 22500 13909 16197 19673 14048
internal_value=0 -0.0409228 -0.0517906 0.0998302 -0.0556076 -0.0530688 -0.0575951 -0.0540055 0.109507 0.129132
internal_count=510000 372110 214287 137890 205421 197135 174635 160726 103411 33721
shrinkage=0.1


Tree=79
num_leaves=11
num_cat=0
split_feature=22 6 6 6 6 22 22 22 22 22
split_gain=2905.71 946.911 547.33 493.634 442.14 365.906 313.894 266.153 183.568 156.924
threshold=4.5000000000000009 4.5000000000000009 3.5000000000000004 1.5000000000000002 4.5000000000000009 1.0000000180025095e-35 2.5000000000000004 9.5000000000000018 10.500000000000002 10.500000000000002
decision_type=2 2 2 2 2 2 2 2 2 2
left_child=4 2 3 7 5 -1 -7 -2 -3 -4
right_child=1 8 9 -5 -6 6 -8 -9 -10 -11
leaf_value=0.013646364360764879 0.00674327396072575 -0.011140444018259246 0.019448450415255013 -0.014565978213161624 -0.034266276373491757 -0.02622220204183618 -0.0078784225654260284 0.02066954584211159 0.0045153054564813283 0.035339120141958939
leaf_count=11064 110203 66283 48424 23326 45590 57322 52310 47644 27824 20010
internal_value=0 0.0791315 0.128109 0.0812261 -0.191377 -0.139166 -0.171019 0.111436 -0.0627605 0.243439
internal_count=510000 343714 249607 181173 166286 120696 109632 157847 94107 68434
shrinkage=0.1


Tree=80
num_leaves=11
num_cat=0
split_feature=18 10 18 10 18 18 18 18 18 18
split_gain=2391.1 434.108 249.316 232.715 182.475 152.301 83.2256 82.3691 71.2685 69.4238
threshold=8.5000000000000018 0.19244012684589173 4.5000000000000009 0.18690056687605336 2.5000000000000004 -1.0000000180025095e-35 12.500000000000002 1.0000000180025095e-35 13.500000000000002 -1.0000000180025095e-35
decision_type=2 2 2 2 2 2 2 2 2 2
left_child=1 2 5 8 9 -1 -5 -7 -2 -3
right_child=3 4 -4 6 -6 7 -8 -9 -10 -11
leaf_value=-1.0275274930410444e-05 0.0053676924522972416 0.005935015890739314 -0.0070522216143121741 0.013237054423872758 0.0028283244460101465 -0.030600242748142711 0.022270259217288688 -0.019402513984563247 0.015428132528418546 -0.011588653902090493
leaf_count=8829 76508 6323 61412 42636 70834 32016 47795 83483 19895 60269
internal_value=0 -0.0970042 -0.153464 0.128248 -0.0265244 -0.203134 0.181457 -0.222962 0.0754537 -0.0950728
internal_count=510000 323166 185740 186834 137426 124328 90431 115499 96403 66592
shrinkage=0.1


Tree=81
num_leaves=11
num_cat=0
split_feature=15 15 16 16 16 15 16 15 16 16
split_gain=1994.2 511.009 317.951 254.929 158.872 139.657 89.3928 59.9458 48.8085 44.5823
threshold=1.5000000000000002 2.5000000000000004 2.5000000000000004 2.5000000000000004 1.5000000000000002 1.0000000180025095e-35 1.0000000180025095e-35 1.0000000180025095e-35 3.5000000000000004 1.0000000180025095e-35
decision_type=2 2 2 2 2 2 2 2 2 2
left_child=2 4 5 9 -2 -1 -7 -4 -6 -3
right_child=1 3 7 -5 8 6 -8 -9 -10 -11
leaf_value=0.00023869260554248338 -0.0059397142930460878 0.0057549591373228307 0.013951748023024034 0.022549124820815638 0.0024552288814464886 -0.024627721200718503 -0.015561566985241714 -0.0048212521400323805 0.011556467945135466 0.011937449722308894
leaf_count=10948 63639 50146 4545 48014 47771 57799 80465 55531 21137 70005
internal_value=0 0.0791102 -0.131695 0.134339 0.00193898 -0.176464 -0.192254 -0.0325851 0.0537068 0.0942719
internal_count=510000 300712 209288 168165 132547 149212 138264 60076 68908 120151
shrinkage=0.1


Tree=82
num_leaves=11
num_cat=0
split_feature=17 18 17 18 17 17 17 17 17 17
split_gain=7264.55 1578.36 943.221 491.079 388.528 321.35 278.816 240.242 138.333 116.748
threshold=2.5000000000000004 7.5000000000000009 4.5000000000000009 9.5000000000000018 1.5000000000000002 3.5000000000000004 1.5000000000000002 -1.0000000180025095e-35 1.0000000180025095e-35 -1.0000000180025095e-35
decision_type=2 2 2 2 2 2 2 2 2 2
left_child=1 6 3 5 9 -2 7 -1 -9 -3
right_child=2 4 -4 -5 -6 -7 -8 8 -10 -11
leaf_value=-0.0052445919039093014 -0.0043887862478020649 0.0092198033732549187 0.039567603783232326 0.027277321302441968 0.0073189485703473696 0.016469435952039417 -0.018054002792567549 -0.040471277843257415 -0.027659319752719687 -0.011786986022789152
leaf_count=8847 36518 6586 55157 46740 44729 46085 60911 69943 47950 86534
internal_value=0 -0.160681 0.236096 0.159895 -0.0421085 0.0770261 -0.27768 -0.327896 -0.351042 -0.101719
internal_count=510000 325500 184500 129343 137849 82603 187651 126740 117893 93120
shrinkage=0.1


Tree=83
num_leaves=8
num_cat=0
split_feature=0 0 3 3 3 3 3
split_gain=1538.57 6.15149 1.46286 0.563496 0.363092 0.192655 0.0534045
threshold=1.0000000180025095e-35 -1.0000000180025095e-35 -1.0000000180025095e-35 1.0000000180025095e-35 -1.0000000180025095e-35 1.0000000180025095e-35 -1.0000000180025095e-35
decision_type=2 2 2 2 2 2 2
left_child=1 5 -2 4 -3 6 -1
right_child=2 3 -4 -5 -6 -7 -8
leaf_value=0.00018760654353968547 -0.038860591449939919 0.0034050207335263637 -0.031429451682043717 0.0029232914448837051 0.0024834240944026677 7.4062309036572615e-05 -0.001187428712547571
leaf_count=461 1337 13397 44265 161790 274025 5442 9283
internal_value=0 0.0256299 -0.31653 0.0267079 0.0252749 -0.00655751 -0.0109456
internal_count=510000 464398 45602 449212 287422 15186 9744
shrinkage=0.1


Tree=84
num_leaves=11
num_cat=0
split_feature=1 11 11 11 11 11 11 11 11 11
split_gain=202.375 30.448 6.42551 9.90349 23.6445 7.17303 5.92581 5.9971 6.15538 5.70789
threshold=1.0000000180025095e-35 0.19159884426211435 0.13463936313063499 0.15452412885986674 0.1534459194305742 0.15402314658090729 0.17250185142623667 0.14937931034482763 0.13979768638842177 0.23133429239345446
decision_type=2 2 2 2 2 2 2 2 2 2
left_child=1 6 -2 4 -4 -6 7 8 -1 -5
right_child=2 -3 3 9 5 -7 -8 -9 -10 -11
leaf_value=-0.00039415318777105267 -0.00083137630830305669 0.0031452952838520358 -0.010370851998888304 -0.0071831268988600001 -0.064828664517109738 -0.026103203584905046 0.0011001103782370125 -0.0012771709431302237 0.0040686461158688089 5.6466251177175275e-05
leaf_count=21987 4346 173903 5354 78342 345 341 126670 82723 12996 2993
internal_value=0 0.0151108 -0.07077 -0.0739066 -0.140342 -0.452057 0.00327578 -0.00510402 0.0127509 -0.0690877
internal_count=510000 418279 91721 87375 6040 686 244376 117706 34983 81335
shrinkage=0.1


Tree=85
num_leaves=11
num_cat=0
split_feature=16 16 16 16 16 3 3 3 3 3
split_gain=554.075 206.821 91.9885 112.218 11.3994 7.75471 6.44028 2.92795 1.06414 0.776008
threshold=1.5000000000000002 3.5000000000000004 -1.0000000180025095e-35 1.0000000180025095e-35 2.5000000000000004 -1.0000000180025095e-35 -1.0000000180025095e-35 1.0000000180025095e-35 1.0000000180025095e-35 1.0000000180025095e-35
decision_type=2 2 2 2 2 2 2 2 2 2
left_child=2 4 5 8 -2 -1 -6 -8 -4 -7
right_child=1 -3 3 -5 6 9 7 -9 -10 -11
leaf_value=-0.014691367450705643 0.00092023249394833882 0.01145665680639517 -0.010221213372419147 -0.0023124037669204366 0.012513637127218919 0.0080410653971820026 0.002428307020185482 0.0047077883104702798 -0.0091464493463569961 0.0053755950485627792
leaf_count=474 118568 81582 87448 93468 1938 9234 39209 23310 49230 5539
internal_value=0 0.0496786 -0.0584734 -0.0670552 0.0188387 0.0641548 0.0357779 0.0328673 -0.0983573 0.0706443
internal_count=510000 264607 245393 230146 183025 15247 64457 62519 136678 14773
shrinkage=0.1


Tree=86
num_leaves=11
num_cat=0
split_feature=8 8 8 8 8 7 7 7 7 7
split_gain=1013.22 573.058 385.816 337.851 200.846 121.246 170.545 90.318 79.4737 91.4672
threshold=4.5000000000000009 3.5000000000000004 1.5000000000000002 2.5000000000000004 -1.0000000180025095e-35 3.5000000000000004 2.5000000000000004 4.5000000000000009 4.5000000000000009 3.5000000000000004
decision_type=2 2 2 2 2 2 2 2 2 2
left_child=1 2 4 8 -1 6 -3 -7 9 -4
right_child=-2 5 3 -5 -6 7 -8 -9 -10 -11
leaf_value=0.002477119568539991 0.014025476714435967 -0.010457535844953653 0.006940830948086299 -0.0044462155677745937 -0.020167454363977391 -0.0006458884300800554 -0.024566002088119751 -0.030778829033685302 -0.019085218562947731 0.017507146999643574
leaf_count=15433 101863 70392 100390 88944 34531 27826 38543 3346 2932 25800
internal_value=0 -0.0377764 0.00565984 0.034434 -0.127838 -0.125627 -0.152726 -0.0354269 0.0862353 0.0919886
internal_count=510000 408137 268030 218066 49964 140107 108935 31172 129122 126190
shrinkage=0.1


Tree=87
num_leaves=11
num_cat=0
split_feature=15 19 19 15 15 15 19 19 19 19
split_gain=1637.21 607.353 569.044 227.594 201.212 122.817 99.1892 82.565 81.8962 64.2583
threshold=1.5000000000000002 14.500000000000002 12.500000000000002 2.5000000000000004 2.5000000000000004 1.0000000180025095e-35 22.500000000000004 4.5000000000000009 19.500000000000004 6.5000000000000009
decision_type=2 2 2 2 2 2 2 2 2 2
left_child=1 5 3 9 8 -1 -6 -7 -4 -2
right_child=2 -3 4 -5 6 7 -8 -9 -10 -11
leaf_value=-0.0017957166222507084 -0.012956840473090869 -0.0019530313811632546 0.00251671432425048 0.0049104991491383167 0.015081290278859214 -0.027884183608470389 0.026893217677930265 -0.018061063602483756 0.013589878203250675 -0.0018598408258180044
leaf_count=9045 37698 88722 44324 78571 68842 48802 20752 62719 26440 24085
internal_value=0 -0.119749 0.0717392 -0.00625957 0.132843 -0.204741 0.179528 -0.221813 0.068375 -0.0846525
internal_count=510000 209288 300712 140354 160358 120566 89594 111521 70764 61783
shrinkage=0.1


Tree=88
num_leaves=11
num_cat=0
split_feature=14 14 14 14 21 21 21 21 14 21
split_gain=2866.16 706.506 279.039 417.249 185.546 269.72 94.713 232.196 93.6038 90.924
threshold=0.17783880857202974 0.22234706616729091 0.15338328175615762 1.0000000180025095e-35 5.5000000000000009 2.5000000000000004 2.5000000000000004 5.5000000000000009 0.25277812075564893 2.5000000000000004
decision_type=2 2 2 2 2 2 2 2 2 2
left_child=2 4 3 -1 5 -2 -5 -8 -3 -4
right_child=1 8 9 6 -6 -7 7 -9 -10 -11
leaf_value=0.0063624767599286857 0.009286523408664699 0.016589471888158153 0.0012181685402930359 -0.014917233292065275 0.011709620944022383 -0.006714573259739981 -0.033094823124731491 -0.015607040656721511 0.025958402808817966 -0.010363678911553664
leaf_count=15376 46461 69273 25565 35298 50901 68383 52561 38885 41750 65547
internal_value=0 0.106502 -0.141334 -0.189044 0.0382939 0.0011116 -0.22269 -0.252582 0.201836 -0.0697368
internal_count=510000 276768 233232 142120 165745 114844 126744 91446 111023 91112
shrinkage=0.1


Tree=89
num_leaves=11
num_cat=0
split_feature=6 6 6 6 6 1 1 1 1 1
split_gain=1139.9 643.286 604.209 337.541 75.5118 61.0231 45.6305 23.614 20.4525 13.6866
threshold=4.5000000000000009 3.5000000000000004 1.5000000000000002 1.0000000180025095e-35 2.5000000000000004 1.0000000180025095e-35 1.0000000180025095e-35 1.0000000180025095e-35 1.0000000180025095e-35 1.0000000180025095e-35
decision_type=2 2 2 2 2 2 2 2 2 2
left_child=1 2 3 8 9 -3 -5 -2 -1 -4
right_child=7 5 4 6 -6 -7 -8 -9 -10 -11
leaf_value=-0.0028856276672007491 -0.012149654341213158 0.01691939958742663 -0.01333107540596765 0.00987804758615605 -0.032245618184140588 0.0066649255984492315 0.0019500756756379472 -0.017984075279626529 -0.0089780194602899887 -0.024478959026883188
leaf_count=85933 114693 83175 18547 106092 12024 18257 23526 25004 18689 4060
internal_value=0 0.0455386 0.0026271 0.0309225 -0.209409 0.151489 0.084873 -0.131678 -0.0394592 -0.152678
internal_count=510000 370303 268871 234240 34631 101432 129618 139697 104622 22607
shrinkage=0.1


Tree=90
num_leaves=7
num_cat=0
split_feature=1 1 3 3 3 3
split_gain=134.876 1.65467 11.7974 0.418385 0.537059 0.329781
threshold=1.0000000180025095e-35 -1.0000000180025095e-35 -1.0000000180025095e-35 -1.0000000180025095e-35 1.0000000180025095e-35 1.0000000180025095e-35
decision_type=2 2 2 2 2 2
left_child=1 2 -1 -3 -5 -4
right_child=-2 3 5 4 -6 -7
leaf_value=-0.027995053506959779 -0.0057918709138223331 0.0022664354122207313 -0.00026431504209264907 0.0011112839696152327 0.0015162037603848781 0.0013136847884508169
leaf_count=442 91721 12026 9366 245808 145139 5498
internal_value=0 0.012301 -0.00427351 0.012933 0.0126249 0.00303942
internal_count=510000 418279 15306 402973 390947 14864
shrinkage=0.1


Tree=91
num_leaves=11
num_cat=0
split_feature=20 20 20 20 20 20 20 20 3 20
split_gain=6610.58 756.905 694.684 437.877 238.101 192.891 105.431 69.434 32.3254 29.3873
threshold=0.18599773784890913 0.22815577374682297 0.15861755469310471 1.0000000180025095e-35 0.13591474624188374 0.25215213680712351 0.2003904693847762 0.12369638740267086 -1.0000000180025095e-35 0.10991071879724967
decision_type=2 2 2 2 2 2 2 2 2 2
left_child=2 6 3 -1 7 -3 -2 8 -5 -10
right_child=1 5 -4 4 -6 -7 -8 -9 9 -11
leaf_value=0.0008387218106709754 0.0011651048266582197 0.020499733060595896 -0.0073650763681839277 -0.066739414472974448 -0.020132538013045338 0.032498499837907271 0.011560808184448034 -0.029603440007299749 -0.047862300434076105 -0.035914863772366572
leaf_count=14994 38076 74153 86630 1402 61029 55396 76729 55785 8305 37501
internal_value=0 0.178606 -0.194543 -0.2577 -0.285208 0.257596 0.0819914 -0.337723 -0.38829 -0.38028
internal_count=510000 244354 265646 179016 164022 129549 114805 102993 47208 45806
shrinkage=0.1


Tree=92
num_leaves=11
num_cat=0
split_feature=20 20 20 20 9 20 20 9 9 9
split_gain=5361.76 615.55 565.178 356.089 335.559 157.187 131.829 129.371 125.86 106.821
threshold=0.18599773784890913 0.22815577374682297 0.15861755469310471 1.0000000180025095e-35 0.19430479638856893 0.25215213680712351 0.13240108603445039 0.17961144441537416 0.19430479638856893 0.19430479638856893
decision_type=2 2 2 2 2 2 2 2 2 2
left_child=2 8 3 -1 6 9 -5 -4 -2 -3
right_child=1 5 7 4 -6 -7 -8 -9 -10 -11
leaf_value=0.00075486437541373097 0.0035534453731807382 0.014209307611625499 -0.013279386889567668 -0.036988665453163976 -0.014865392599491468 0.029316414021344779 -0.024692809975693661 -0.00039538883999182869 0.01475935012419595 0.026685618886278656
leaf_count=14994 77090 49869 43106 61924 53909 55396 48189 43524 37715 24284
internal_value=0 0.160923 -0.17532 -0.232367 -0.257217 0.232245 -0.314452 -0.0662953 0.0738119 0.184738
internal_count=510000 244354 265646 179016 164022 129549 110113 86630 114805 74153
shrinkage=0.1


Tree=93
num_leaves=11
num_cat=0
split_feature=19 19 19 19 19 1 1 1 19 19
split_gain=886.587 225.435 149.195 199.927 54.5106 33.985 24.2851 23.79 19.9523 16.772
threshold=10.500000000000002 20.500000000000004 -1.0000000180025095e-35 2.5000000000000004 15.500000000000002 1.0000000180025095e-35 1.0000000180025095e-35 1.0000000180025095e-35 23.500000000000004 6.5000000000000009
decision_type=2 2 2 2 2 2 2 2 2 2
left_child=2 4 -1 6 7 9 -4 -2 -3 -5
right_child=1 8 3 5 -6 -7 -8 -9 -10 -11
leaf_value=0.0067828328991412085 0.0013740363862230595 0.010237468704847213 -0.01540862178261521 -0.0068252274307628027 0.005292138585287846 -0.011977345218393628 -0.023495270078672036 -0.0047526050757662223 0.015426893153080785 -0.0022651541930586061
leaf_count=15171 95902 37000 65716 41329 110979 20464 14291 21049 36103 51996
internal_value=0 0.0535222 -0.0872991 -0.100639 0.027899 -0.0558928 -0.168033 0.00303508 0.128297 -0.0424935
internal_count=510000 301033 208967 193796 227930 113789 80007 116951 73103 93325
shrinkage=0.1


Tree=94
num_leaves=11
num_cat=0
split_feature=15 15 15 7 7 7 7 7 7 7
split_gain=1338.87 343.715 146.08 112.607 211.464 89.4993 97.9454 149.616 85.1667 97.4016
threshold=1.5000000000000002 2.5000000000000004 1.0000000180025095e-35 3.5000000000000004 1.0000000180025095e-35 4.5000000000000009 3.5000000000000004 1.0000000180025095e-35 3.5000000000000004 2.5000000000000004
decision_type=2 2 2 2 2 2 2 2 2 2
left_child=2 8 -1 4 -3 6 7 -4 9 -2
right_child=1 3 5 -5 -6 -7 -8 -9 -10 -11
leaf_value=0.0043181371722268219 0.0015171420401097399 0.016918140883729289 -0.0066842106584425118 0.018463526230413446 0.0039313013962875678 -0.037317508154540262 -0.0041360500269353459 -0.017967475072063189 0.0076916280893460851 -0.0091295510793100044
leaf_count=15493 66523 47806 54802 37195 83164 4599 38675 95719 29616 36408
internal_value=0 0.0649631 -0.108665 0.110519 0.0884981 -0.122219 -0.116711 -0.137145 0.00142408 -0.0213002
internal_count=510000 300712 209288 168165 130970 193795 189196 150521 132547 102931
shrinkage=0.1


Tree=95
num_leaves=11
num_cat=0
split_feature=22 2 22 22 22 22 2 2 22 22
split_gain=2500.79 369.398 366.932 559.963 227.603 306.557 176.759 108.317 86.9334 104.398
threshold=5.5000000000000009 1.0000000180025095e-35 2.5000000000000004 1.0000000180025095e-35 10.500000000000002 6.5000000000000009 1.0000000180025095e-35 1.0000000180025095e-35 8.5000000000000018 7.5000000000000009
decision_type=2 2 2 2 2 2 2 2 2 2
left_child=2 4 3 -1 5 -2 -4 -5 9 -3
right_child=1 8 6 7 -6 -7 -8 -9 -10 -11
leaf_value=0.0058595860246885611 0.013815965504575005 0.019997468803272193 -0.0123141104399382 -0.033228284786491029 0.012770559763159946 -0.0032851770573193171 0.0012706918938227372 -0.018760552175614665 0.024263019247320189 0.0046612789134722913
leaf_count=15279 37494 25926 95232 57542 74304 96437 35349 21444 32641 18352
internal_value=0 0.0945916 -0.139496 -0.224463 0.0579763 0.0172275 -0.0830403 -0.289178 0.183941 0.138614
internal_count=510000 285154 224846 94265 208235 133931 130581 78986 76919 44278
shrinkage=0.1


Tree=96
num_leaves=11
num_cat=0
split_feature=17 17 17 17 17 16 16 16 17 16
split_gain=6015.72 1150.9 302.423 282.659 236.025 170.691 136.209 106.529 100.096 85.5902
threshold=3.5000000000000004 1.5000000000000002 4.5000000000000009 -1.0000000180025095e-35 1.0000000180025095e-35 1.5000000000000002 1.5000000000000002 3.5000000000000004 2.5000000000000004 1.5000000000000002
decision_type=2 2 2 2 2 2 2 2 2 2
left_child=1 3 9 -1 7 8 -6 -5 -3 -2
right_child=2 5 -4 4 6 -7 -8 -9 -10 -11
leaf_value=0.0016041475336949378 0.015374596971256649 -0.01148421628250468 0.036140271709997056 -0.028864811342158958 -0.022136727173767173 0.0037523957052984776 -0.0082636265806368264 -0.015219354247619452 0.0010057884272140387 0.026136874507738633
leaf_count=15433 34799 50864 55157 102050 39897 84653 43085 19395 27404 37263
internal_value=0 -0.113585 0.279677 -0.197072 -0.214943 -0.0111743 -0.14559 -0.264771 -0.069126 0.211884
internal_count=510000 382781 127219 219860 204427 162921 82982 121445 78268 72062
shrinkage=0.1


Tree=97
num_leaves=11
num_cat=0
split_feature=22 22 22 2 22 22 22 2 2 22
split_gain=2034.89 303.572 322.201 303.429 215.202 185.99 252.826 89.231 88.535 82.6215
threshold=5.5000000000000009 3.5000000000000004 1.0000000180025095e-35 1.0000000180025095e-35 2.5000000000000004 9.5000000000000018 6.5000000000000009 1.0000000180025095e-35 1.0000000180025095e-35 11.500000000000002
decision_type=2 2 2 2 2 2 2 2 2 2
